%YAML:1.0
---
opencv_ml_svm:
   format: 3
   svmType: C_SVC
   kernel:
      type: RBF
      gamma: 5.0000000000000000e-01
   C: 1.
   term_criteria: { epsilon:1.1920928955078125e-07, iterations:1000 }
   var_count: 64
   class_count: 31
   class_labels: !!opencv-matrix
      rows: 31
      cols: 1
      dt: i
      data: [ 1001, 1003, 1005, 1007, 1009, 1011, 1013, 1015, 1017, 1019,
          1021, 1023, 1025, 1027, 1029, 1031, 1033, 1035, 1037, 1039,
          1041, 1043, 1045, 1047, 1049, 1051, 1053, 1055, 1057, 1059,
          1061 ]
   sv_total: 2662
   support_vectors:
      - [ 6.20575957e-02, 9.19406638e-02, 8.04650560e-02, 1.23146966e-01,
          8.76264870e-02, 8.43473673e-02, 6.81301951e-02, 2.14306176e-01,
          1.06368884e-01, 0., 0., 4.87854937e-03, 7.83813745e-03, 0.,
          1.88093092e-02, 3.48159730e-01, 1.88092649e-01, 8.41361284e-02,
          2.97415294e-02, 4.87854937e-03, 7.83813745e-03, 0.,
          2.56924098e-03, 2.48097748e-01, 1.40458703e-01, 8.39123875e-02,
          0., 0., 3.05535970e-03, 5.78031838e-02, 8.85361508e-02,
          3.26361060e-01, 1.26001075e-01, 4.46368977e-02, 5.32576740e-02,
          4.75554839e-02, 5.75816259e-02, 1.09721519e-01, 1.04964048e-01,
          3.31130564e-01, 1.52132347e-01, 0., 4.56882874e-03,
          4.17639315e-02, 8.64186231e-03, 0., 1.08386420e-01,
          2.17049778e-01, 1.59889266e-01, 0., 0., 0., 0., 0.,
          2.09667142e-02, 3.80857140e-01, 1.27829134e-01, 8.18616524e-02,
          6.66775033e-02, 0., 0., 8.88218582e-02, 5.98410107e-02,
          2.55784661e-01 ]
      - [ 3.62389922e-01, 1.10926025e-01, 1.07180640e-01, 9.89011824e-02,
          7.06374086e-03, 6.40107468e-02, 5.41994534e-02, 1.10803008e-01,
          2.44378448e-01, 0., 0., 5.93987433e-03, 6.31800201e-03, 0.,
          2.65639252e-03, 6.42035250e-03, 3.30880076e-01, 1.08319432e-01,
          0., 0., 7.06374086e-03, 0., 3.29106748e-02, 3.86505239e-02,
          2.16176480e-01, 1.44342512e-01, 5.50853200e-02, 3.15768383e-02,
          9.49257761e-02, 8.69590566e-02, 1.05405629e-01, 1.44275546e-01,
          2.37507194e-01, 1.34220555e-01, 4.35397625e-02, 9.92339700e-02,
          5.77450730e-02, 8.24259296e-02, 7.12056831e-02, 6.49740919e-02,
          3.60517293e-01, 1.08065493e-01, 0., 0., 0., 0., 3.94221619e-02,
          4.41960506e-02, 2.67739624e-01, 3.75670637e-03, 0., 0.,
          5.47155039e-03, 0., 3.75670637e-03, 0., 4.00110990e-01,
          1.01298615e-01, 6.77220225e-02, 3.20973136e-02, 0., 0., 0.,
          1.16183110e-01 ]
      - [ 2.77914733e-01, 9.50672925e-02, 6.41180575e-02, 0.,
          8.68045166e-03, 6.22987235e-03, 8.67915899e-02, 5.53732552e-02,
          2.58148849e-01, 5.51779801e-03, 4.90609370e-03, 7.14560412e-03,
          9.27979313e-03, 4.90609370e-03, 5.66194877e-02, 1.22378498e-01,
          2.76067495e-01, 1.19821325e-01, 3.02795377e-02, 0.,
          6.56180503e-03, 0., 3.98687236e-02, 9.52597260e-02,
          2.55896598e-01, 6.92400113e-02, 0., 6.96230158e-02,
          4.63989656e-03, 7.92368129e-02, 6.60678595e-02, 1.07742794e-01,
          2.63945729e-01, 1.09122992e-01, 6.10914305e-02, 7.09813088e-02,
          6.40520677e-02, 8.90996605e-02, 9.01969597e-02, 1.31530687e-01,
          3.51055562e-01, 5.26099689e-02, 0., 3.07716299e-02,
          9.84270778e-03, 0., 1.13542221e-01, 1.77908957e-01,
          3.19702387e-01, 2.38927677e-02, 3.55539881e-02, 0.,
          1.96854156e-02, 4.95137163e-02, 1.36774972e-01, 1.82674274e-01,
          3.05506974e-01, 7.36691952e-02, 1.04719855e-01, 9.55973640e-02,
          7.21735358e-02, 5.67817800e-02, 1.21277496e-01, 1.17825449e-01 ]
      - [ 2.02998146e-01, 1.56385079e-02, 1.27707450e-02, 3.05276066e-02,
          1.57233141e-02, 5.69797866e-02, 9.26529765e-02, 1.67326748e-01,
          2.00134978e-01, 8.02238565e-03, 0., 4.34984304e-02,
          1.60382539e-02, 4.77073193e-02, 1.66683406e-01, 3.09091121e-01,
          1.55618459e-01, 6.97619691e-02, 6.72749877e-02, 5.36489254e-03,
          1.59639381e-02, 7.28501985e-03, 1.52733680e-02, 2.07949102e-01,
          1.31109253e-01, 1.39409667e-02, 8.39191452e-02, 5.96011542e-02,
          1.26622692e-01, 9.63332355e-02, 1.15196757e-01, 2.52710640e-01,
          2.21423671e-01, 3.65953147e-02, 0., 0., 0., 5.19239642e-02,
          8.69241357e-02, 3.08768511e-01, 3.12987834e-01, 5.32128364e-02,
          0., 5.06798886e-02, 0., 7.00031668e-02, 1.19013466e-01,
          2.32028157e-01, 1.83715016e-01, 0., 0., 0., 3.55280377e-02,
          6.46634549e-02, 6.32183701e-02, 2.04566270e-01, 1.76045030e-01,
          1.68657139e-01, 7.88804069e-02, 1.54045731e-01, 7.89898336e-02,
          0., 9.37769488e-02, 1.41354084e-01 ]
      - [ 3.89978945e-01, 1.28286192e-02, 0., 2.89148074e-02,
          1.06421411e-02, 6.01481786e-03, 4.84946258e-02, 1.29199892e-01,
          5.50240353e-02, 5.85845532e-03, 7.84913823e-03, 5.05783875e-03,
          1.80471595e-02, 0., 1.32835759e-02, 4.38953936e-02,
          3.20459187e-01, 9.24152285e-02, 7.63775688e-03, 7.15286424e-03,
          1.58774070e-02, 6.01481786e-03, 5.85845532e-03, 0.,
          9.43911150e-02, 1.47034302e-01, 1.22689031e-01, 5.97958490e-02,
          1.07198268e-01, 9.57958698e-02, 2.65270192e-02, 1.28716066e-01,
          2.78018057e-01, 9.88288745e-02, 8.40062201e-02, 0.,
          6.63053542e-02, 9.10009816e-02, 1.19998269e-01, 2.81644791e-01,
          3.56491894e-01, 1.69749595e-02, 0., 1.08569087e-02, 0., 0., 0.,
          0., 1.61197305e-01, 6.50069043e-02, 3.34827863e-02,
          7.77920783e-02, 4.23851050e-02, 3.88695151e-02, 6.81398362e-02,
          8.30577090e-02, 3.97105575e-01, 0., 0., 1.08007014e-01,
          1.33832484e-01, 1.55516505e-01, 1.35352314e-01, 1.15591064e-01 ]
      - [ 3.10352147e-01, 7.78055415e-02, 4.28092368e-02, 0., 0., 0.,
          8.46388265e-02, 1.24880150e-01, 1.89482182e-01, 0., 0.,
          5.22322878e-02, 0., 5.28449304e-02, 1.03738442e-01,
          1.28753349e-01, 2.82685637e-01, 3.48792151e-02, 0., 0., 0., 0.,
          8.64701867e-02, 0., 1.83674261e-01, 8.63175690e-02,
          8.17157701e-02, 1.15229085e-01, 4.22371551e-02, 7.54742622e-02,
          5.75991906e-02, 1.54685974e-01, 2.78068900e-01, 9.60474461e-02,
          1.17643863e-01, 5.18309325e-02, 0., 6.73766211e-02,
          1.37117058e-01, 1.77527294e-01, 3.86956841e-01, 2.74048429e-02,
          5.27673289e-02, 0., 0., 0., 1.20783605e-01, 1.59022123e-01,
          1.46430433e-01, 5.04876636e-02, 5.03010377e-02, 0.,
          7.07211122e-02, 0., 4.89398353e-02, 5.92885502e-02,
          3.56356651e-01, 7.64336810e-02, 4.35343757e-02, 8.11265782e-02,
          1.75222516e-01, 9.16486681e-02, 1.40466943e-01, 1.76484182e-01 ]
      - [ 3.71724814e-01, 1.17708214e-01, 1.10993320e-02, 5.59344515e-02,
          8.16889033e-02, 6.33693207e-03, 9.48387757e-02, 1.12736382e-01,
          1.95436522e-01, 6.68784901e-02, 0., 8.08295142e-03,
          7.42257060e-03, 4.97553945e-02, 1.61717795e-02, 6.45742863e-02,
          2.66234875e-01, 7.03482106e-02, 1.87284499e-02, 0.,
          3.71128530e-03, 5.54966601e-03, 3.12080630e-03, 1.01937644e-01,
          8.73103216e-02, 1.20146498e-01, 1.03492007e-01, 9.98835936e-02,
          8.11007023e-02, 1.05039328e-01, 1.75868690e-01, 1.38055906e-01,
          2.99230814e-01, 1.17761388e-01, 7.98216462e-02, 4.63582203e-02,
          3.06189228e-02, 0., 1.04540572e-01, 1.90214723e-01,
          3.96994025e-01, 3.54825817e-02, 0., 0., 0., 0., 0.,
          6.61888942e-02, 2.62678385e-01, 0., 0., 1.91338509e-02, 0., 0.,
          6.93727359e-02, 1.51147291e-01, 3.40752333e-01, 1.50263265e-01,
          5.05227596e-02, 4.82619032e-02, 0., 0., 7.62393400e-02, 0. ]
      - [ 2.02144548e-01, 1.13941155e-01, 7.95141682e-02, 7.58909658e-02,
          5.07436879e-02, 6.63727242e-03, 7.25906342e-02, 1.89352140e-01,
          1.17237367e-01, 6.60748407e-02, 9.55642574e-03, 6.91249641e-03,
          1.51362093e-02, 0., 1.05029931e-02, 2.18560323e-01,
          2.64113486e-01, 1.04201250e-02, 2.05242429e-02, 1.85105652e-02,
          3.93183976e-02, 6.63727242e-03, 4.69375141e-02, 1.80203050e-01,
          1.88929051e-01, 6.22732416e-02, 4.41093892e-02, 6.91249641e-03,
          1.13659445e-02, 0., 9.89416521e-03, 2.43797213e-01,
          1.76149234e-01, 7.82890096e-02, 7.88327679e-02, 8.33551586e-02,
          1.08403534e-01, 7.73244649e-02, 8.91216099e-02, 3.36796880e-01,
          1.44752219e-01, 1.13517866e-01, 4.22547683e-02, 0., 0., 0., 0.,
          2.67281890e-01, 2.38115847e-01, 0., 0., 0., 0., 0.,
          1.01047762e-01, 3.34591419e-01, 2.37405211e-01, 7.81674907e-02,
          0., 6.94066733e-02, 0., 0., 9.87611040e-02, 2.51901537e-01 ]
      - [ 1.96865514e-01, 1.04297310e-01, 6.21333346e-03, 3.90703082e-02,
          1.50746657e-02, 5.67800254e-02, 1.40470520e-01, 1.79845542e-01,
          1.38740867e-01, 5.38170524e-02, 9.42743756e-03, 7.81285297e-03,
          1.86967421e-02, 2.57767253e-02, 3.95233296e-02, 3.28115463e-01,
          1.79590687e-01, 1.72064621e-02, 1.12896711e-02, 6.63453527e-03,
          8.47710762e-03, 6.45340234e-02, 4.94128233e-03, 1.30791262e-01,
          2.06234947e-01, 9.24429297e-03, 8.15779194e-02, 1.12152351e-02,
          1.22863464e-02, 7.99817145e-02, 1.12855263e-01, 2.79695719e-01,
          2.24953368e-01, 0., 5.76274209e-02, 0., 4.08576578e-02,
          7.11014867e-02, 1.67428792e-01, 2.65608758e-01, 3.28914404e-01,
          9.24429297e-03, 0., 0., 0., 0., 0., 2.59996861e-01,
          1.72805101e-01, 0., 3.74265574e-02, 6.63453527e-03, 0., 0.,
          5.45006692e-02, 2.29470223e-01, 2.05451995e-01, 1.53905243e-01,
          1.16318673e-01, 1.12508371e-01, 8.47710762e-03, 1.43473998e-01,
          6.98802853e-03, 1.57855779e-01 ]
      - [ 2.04003930e-01, 1.43644456e-02, 1.28763914e-01, 6.52871132e-02,
          6.51284531e-02, 1.08070552e-01, 3.68404686e-02, 1.49690047e-01,
          1.50008455e-01, 4.81575578e-02, 0., 0., 1.29183140e-02,
          1.26969619e-02, 8.28792807e-03, 2.69824028e-01, 2.97629327e-01,
          7.88244158e-02, 6.79986784e-03, 3.89694795e-02, 4.18054573e-02,
          0., 1.16970040e-01, 1.51402399e-01, 2.26497710e-01, 0., 0.,
          4.38170834e-03, 0., 0., 1.41149284e-02, 1.56614780e-01,
          1.54668227e-01, 1.09576829e-01, 0., 0., 9.33264270e-02,
          8.37119967e-02, 1.51554167e-01, 2.69020498e-01, 2.41718143e-01,
          0., 0., 2.83028837e-02, 0., 0., 0., 2.28638142e-01,
          2.52142459e-01, 5.94994845e-03, 0., 0., 9.95552447e-03, 0.,
          5.13618961e-02, 3.06839556e-01, 2.69167066e-01, 7.26740509e-02,
          0., 5.74554652e-02, 9.43919346e-02, 5.86570427e-02,
          8.46636370e-02, 2.63287723e-01 ]
      - [ 1.48169145e-01, 5.84159009e-02, 1.34760007e-01, 9.70023647e-02,
          9.33922827e-03, 1.08926669e-01, 9.62786004e-02, 1.33259982e-01,
          1.33689404e-01, 4.63493727e-02, 0., 2.35611070e-02,
          1.04415743e-02, 4.13468927e-02, 6.50232956e-02, 3.12030524e-01,
          2.16317445e-01, 3.89667451e-02, 0., 0., 7.38330791e-03, 0.,
          5.05991615e-02, 1.46422178e-01, 2.25742206e-01, 8.96538794e-02,
          6.26715273e-02, 5.27222967e-03, 4.31542955e-02, 4.98156995e-02,
          1.13345310e-01, 2.89517701e-01, 1.33323327e-01, 9.49442014e-02,
          0., 0., 8.50756168e-02, 1.02080815e-01, 8.07722807e-02,
          3.48059833e-01, 1.52285084e-01, 5.79069480e-02, 2.33690552e-02,
          4.07599732e-02, 1.12367738e-02, 3.65002081e-02, 1.01429388e-01,
          2.01841742e-01, 2.00171396e-01, 6.06152490e-02, 0., 0., 0., 0.,
          1.28637124e-02, 3.53090167e-01, 1.98460355e-01, 9.09517556e-02,
          6.06449395e-02, 0., 8.18868056e-02, 0., 4.56293188e-02,
          2.56333143e-01 ]
      - [ 1.62087366e-01, 1.08698383e-01, 9.48229358e-02, 8.17295611e-02,
          6.51577190e-02, 6.76729307e-02, 9.24589783e-02, 2.02729210e-01,
          9.98085067e-02, 4.98674717e-03, 5.11984434e-03, 0.,
          7.65595259e-03, 5.11984434e-03, 1.92539170e-02, 3.15338224e-01,
          1.62157208e-01, 3.32076885e-02, 0., 8.86095874e-03,
          1.02715390e-02, 0., 5.75819984e-03, 2.24759042e-01,
          1.34012654e-01, 9.51059759e-02, 8.53672996e-02, 0.,
          3.96500155e-02, 9.54753533e-02, 9.93272662e-02, 3.44801247e-01,
          7.26307482e-02, 7.24059865e-02, 4.90673035e-02, 7.58622661e-02,
          0., 9.30395424e-02, 8.97573382e-02, 3.80347878e-01,
          7.85994604e-02, 0., 0., 0., 0., 0., 0., 2.60113686e-01,
          1.51738867e-01, 1.03236295e-01, 0., 0., 0., 0., 1.94813311e-02,
          3.61097962e-01, 1.63065076e-01, 7.73717165e-02, 6.01896606e-02,
          8.73336047e-02, 7.48698562e-02, 0., 1.76111162e-01,
          1.64926589e-01 ]
      - [ 6.20575957e-02, 9.19406638e-02, 8.04650560e-02, 1.23146966e-01,
          8.76264870e-02, 8.43473673e-02, 6.81301951e-02, 2.14306176e-01,
          1.06368884e-01, 0., 0., 4.87854937e-03, 7.83813745e-03, 0.,
          1.88093092e-02, 3.48159730e-01, 1.88092649e-01, 8.41361284e-02,
          2.97415294e-02, 4.87854937e-03, 7.83813745e-03, 0.,
          2.56924098e-03, 2.48097748e-01, 1.40458703e-01, 8.39123875e-02,
          0., 0., 3.05535970e-03, 5.78031838e-02, 8.85361508e-02,
          3.26361060e-01, 1.26001075e-01, 4.46368977e-02, 5.32576740e-02,
          4.75554839e-02, 5.75816259e-02, 1.09721519e-01, 1.04964048e-01,
          3.31130564e-01, 1.52132347e-01, 0., 4.56882874e-03,
          4.17639315e-02, 8.64186231e-03, 0., 1.08386420e-01,
          2.17049778e-01, 1.59889266e-01, 0., 0., 0., 0., 0.,
          2.09667142e-02, 3.80857140e-01, 1.27829134e-01, 8.18616524e-02,
          6.66775033e-02, 0., 0., 8.88218582e-02, 5.98410107e-02,
          2.55784661e-01 ]
      - [ 1.45348310e-01, 1.38538644e-01, 4.16320935e-02, 9.51469038e-03,
          1.68905929e-02, 4.88215573e-02, 5.84845133e-02, 1.62414685e-01,
          1.46591604e-01, 8.20024312e-03, 0., 8.09128955e-03,
          8.90212413e-03, 8.41910858e-03, 1.76415574e-02, 3.15287650e-01,
          2.71493524e-01, 5.68780787e-02, 2.50601433e-02, 8.09128955e-03,
          6.89555518e-03, 0., 6.69547077e-03, 1.31000414e-01,
          1.08082026e-01, 1.23104826e-01, 1.14563607e-01, 1.20160848e-01,
          9.58897993e-02, 1.01282030e-01, 8.50278735e-02, 1.72766253e-01,
          1.72594011e-01, 1.32602945e-01, 0., 0., 4.66845185e-02,
          5.97113632e-02, 0., 3.68808001e-01, 1.80714816e-01, 0.,
          8.14691558e-02, 0., 0., 0., 5.75428009e-02, 2.02420130e-01,
          1.05826139e-01, 1.05923012e-01, 0., 0., 8.35674033e-02, 0.,
          1.93179771e-02, 3.74396324e-01, 1.56861275e-01, 0.,
          1.09532803e-01, 1.23582892e-01, 6.69071525e-02, 1.49479240e-01,
          1.05208501e-01, 2.56219059e-01 ]
      - [ 1.43440217e-01, 9.97785404e-02, 2.26012189e-02, 5.78666143e-02,
          6.18533716e-02, 7.15573505e-02, 1.38248846e-01, 2.34285042e-01,
          7.96090886e-02, 0., 0., 0., 4.67208866e-03, 0., 0.,
          3.27105999e-01, 2.13461310e-01, 6.39401972e-02, 0., 0.,
          5.72211668e-03, 0., 0., 2.08652690e-01, 1.72819555e-01,
          1.11645348e-01, 0., 3.37562524e-02, 6.48258328e-02,
          9.04637873e-02, 6.49668351e-02, 3.11819583e-01, 1.30693391e-01,
          2.62013618e-02, 0., 7.88800046e-03, 9.65976715e-03, 0.,
          1.01833060e-01, 3.48279417e-01, 1.38786048e-01, 5.64093096e-03,
          8.35972559e-03, 0., 1.25953881e-02, 0., 2.77804048e-03,
          2.73747951e-01, 1.20106645e-01, 3.77301127e-02, 0., 0.,
          3.32994461e-02, 0., 1.05235025e-01, 3.63188326e-01,
          1.34474352e-01, 6.65877983e-02, 0., 1.17416687e-01, 0.,
          4.21179235e-02, 0., 2.76941419e-01 ]
      - [ 3.22768956e-01, 1.45509973e-01, 8.98652002e-02, 7.05160648e-02,
          1.44218979e-02, 6.81781918e-02, 1.14696681e-01, 1.10006787e-01,
          1.62474051e-01, 1.08470069e-02, 6.81969430e-03, 4.43984419e-02,
          1.52369775e-02, 6.07019030e-02, 1.09564690e-02, 1.04596876e-01,
          2.85389721e-01, 6.30003065e-02, 6.81969430e-03, 5.73465647e-03,
          1.55202262e-02, 0., 8.68023653e-03, 8.84758309e-02,
          1.87790260e-01, 1.45138100e-01, 8.78871977e-02, 9.62856039e-02,
          1.19720459e-01, 8.89308006e-02, 7.87155256e-02, 1.88191667e-01,
          2.39086628e-01, 6.00489229e-02, 0., 4.58800532e-02, 0., 0.,
          9.41580459e-02, 2.58296728e-01, 3.10347140e-01, 2.03491598e-02,
          5.11704758e-02, 8.11002962e-03, 4.56060469e-03, 0.,
          8.26808959e-02, 1.31618634e-01, 2.22940505e-01, 0., 0., 0., 0.,
          0., 4.68323044e-02, 2.25616723e-01, 3.26126784e-01,
          1.12759687e-01, 6.83265999e-02, 8.15684423e-02, 2.61836294e-02,
          6.97525218e-02, 9.60298851e-02, 2.17114598e-01 ]
      - [ 3.22768956e-01, 1.45509973e-01, 8.98652002e-02, 7.05160648e-02,
          1.44218979e-02, 6.81781918e-02, 1.14696681e-01, 1.10006787e-01,
          1.62474051e-01, 1.08470069e-02, 6.81969430e-03, 4.43984419e-02,
          1.52369775e-02, 6.07019030e-02, 1.09564690e-02, 1.04596876e-01,
          2.85389721e-01, 6.30003065e-02, 6.81969430e-03, 5.73465647e-03,
          1.55202262e-02, 0., 8.68023653e-03, 8.84758309e-02,
          1.87790260e-01, 1.45138100e-01, 8.78871977e-02, 9.62856039e-02,
          1.19720459e-01, 8.89308006e-02, 7.87155256e-02, 1.88191667e-01,
          2.39086628e-01, 6.00489229e-02, 0., 4.58800532e-02, 0., 0.,
          9.41580459e-02, 2.58296728e-01, 3.10347140e-01, 2.03491598e-02,
          5.11704758e-02, 8.11002962e-03, 4.56060469e-03, 0.,
          8.26808959e-02, 1.31618634e-01, 2.22940505e-01, 0., 0., 0., 0.,
          0., 4.68323044e-02, 2.25616723e-01, 3.26126784e-01,
          1.12759687e-01, 6.83265999e-02, 8.15684423e-02, 2.61836294e-02,
          6.97525218e-02, 9.60298851e-02, 2.17114598e-01 ]
      - [ 3.21742833e-01, 1.09522954e-01, 2.60845907e-02, 1.13149993e-01,
          3.12874131e-02, 9.06189308e-02, 1.42163172e-01, 9.99247432e-02,
          1.86853632e-01, 5.52329002e-03, 6.26997873e-02, 4.95743640e-02,
          4.78490219e-02, 2.14021672e-02, 1.18055351e-01, 1.15309484e-01,
          3.19862843e-01, 0., 8.60723015e-03, 0., 1.08039798e-02, 0.,
          1.26438439e-01, 1.40597567e-01, 2.25275084e-01, 1.12007178e-01,
          1.41158104e-01, 9.90582258e-02, 1.19688667e-01, 9.93432701e-02,
          1.26851335e-01, 1.37994289e-01, 2.08589658e-01, 0., 0., 0., 0.,
          1.85497738e-02, 1.67800277e-01, 2.35214055e-01, 2.39827186e-01,
          3.18887294e-03, 0., 1.93223394e-02, 0., 0., 8.94152373e-02,
          1.25391394e-01, 1.60708904e-01, 0., 0., 0., 0., 0.,
          1.28569424e-01, 1.81176588e-01, 2.89660543e-01, 1.03605345e-01,
          5.77073991e-02, 0., 2.71377359e-02, 9.86639932e-02,
          1.69029459e-01, 2.20311403e-01 ]
      - [ 2.92761058e-01, 1.64557636e-01, 7.90937990e-02, 7.49866590e-02,
          1.25505313e-01, 9.06083807e-02, 6.42662356e-03, 3.56646739e-02,
          1.32949501e-01, 1.01253740e-01, 5.14272824e-02, 6.34955689e-02,
          1.00253709e-02, 0., 1.18281757e-02, 1.64885640e-01,
          3.22047472e-01, 1.87403988e-02, 0., 8.29673558e-03,
          1.68490522e-02, 5.00100553e-02, 4.97344844e-02, 1.19985223e-01,
          1.93726957e-01, 1.63037688e-01, 8.35145637e-02, 8.29019994e-02,
          1.43036053e-01, 1.20477222e-01, 1.03569552e-01, 1.45991951e-01,
          1.83991671e-01, 6.30019307e-02, 0., 4.14777026e-02,
          7.64258672e-03, 6.26386255e-02, 1.18281757e-02, 2.97369480e-01,
          2.61278063e-01, 2.29450986e-02, 6.59815129e-03, 9.98098869e-03,
          6.24014623e-03, 6.54176027e-02, 4.85766791e-02, 1.25821188e-01,
          1.54767901e-01, 6.57176971e-02, 0., 0., 0., 5.35335243e-02,
          1.43416792e-01, 1.11417368e-01, 3.57935190e-01, 9.06539559e-02,
          6.43819645e-02, 0., 5.54836169e-03, 1.00114301e-01,
          1.57119721e-01, 2.37453640e-01 ]
      - [ 2.09405169e-01, 1.49990141e-01, 7.77024999e-02, 1.00760162e-01,
          6.80136532e-02, 0., 1.14230655e-01, 1.57789379e-01,
          1.01517551e-01, 1.11220293e-02, 7.88679644e-02, 6.36108033e-03,
          8.14902186e-02, 6.83630556e-02, 1.07990742e-01, 2.27997199e-01,
          1.97341323e-01, 1.13691844e-01, 0., 4.25391085e-03,
          7.99217168e-03, 3.81717831e-02, 4.02310025e-03, 1.38708368e-01,
          2.09760845e-01, 1.21141024e-01, 5.05878124e-03, 6.27705008e-02,
          2.71916222e-02, 6.69832975e-02, 1.17965288e-01, 2.94572800e-01,
          2.17440709e-01, 0., 0., 0., 6.95489794e-02, 8.43255222e-02,
          6.91708177e-02, 3.66639376e-01, 1.63909793e-01, 0., 0.,
          3.46068330e-02, 0., 0., 0., 2.02100575e-01, 1.79062173e-01,
          4.89958338e-02, 0., 0., 3.60261500e-02, 0., 4.92727151e-03,
          2.69961178e-01, 2.95779079e-01, 7.28103444e-02, 8.58783647e-02,
          6.93295151e-02, 0., 0., 4.89700623e-02, 2.42163599e-01 ]
      - [ 2.51745492e-01, 1.11980744e-01, 1.06048264e-01, 1.03187583e-01,
          9.06408392e-03, 3.41139883e-02, 1.13180324e-01, 1.86538205e-01,
          1.36600971e-01, 7.21423002e-03, 7.28531508e-03, 0.,
          5.85678481e-02, 1.05881356e-02, 1.42839830e-02, 2.60591000e-01,
          2.74001390e-01, 4.45883796e-02, 4.02442366e-02, 4.82444651e-03,
          1.36963688e-02, 8.70825630e-03, 8.00895132e-03, 1.38099134e-01,
          2.29546174e-01, 9.56086144e-02, 8.51829946e-02, 0.,
          6.63399249e-02, 4.27439250e-02, 1.30851954e-01, 2.84451813e-01,
          1.82726398e-01, 0., 0., 4.30462733e-02, 6.55853152e-02,
          5.94302826e-02, 8.94168988e-02, 2.92304099e-01, 2.52283186e-01,
          1.12515530e-02, 6.55114511e-03, 0., 0., 0., 0., 1.89348489e-01,
          2.34403908e-01, 0., 0., 3.69702093e-02, 0., 0., 6.11723550e-02,
          2.18727231e-01, 3.28084111e-01, 6.97729439e-02, 8.37335736e-02,
          6.62037805e-02, 0., 0., 4.25803177e-02, 1.47203520e-01 ]
      - [ 3.22768956e-01, 1.45509973e-01, 8.98652002e-02, 7.05160648e-02,
          1.44218979e-02, 6.81781918e-02, 1.14696681e-01, 1.10006787e-01,
          1.62474051e-01, 1.08470069e-02, 6.81969430e-03, 4.43984419e-02,
          1.52369775e-02, 6.07019030e-02, 1.09564690e-02, 1.04596876e-01,
          2.85389721e-01, 6.30003065e-02, 6.81969430e-03, 5.73465647e-03,
          1.55202262e-02, 0., 8.68023653e-03, 8.84758309e-02,
          1.87790260e-01, 1.45138100e-01, 8.78871977e-02, 9.62856039e-02,
          1.19720459e-01, 8.89308006e-02, 7.87155256e-02, 1.88191667e-01,
          2.39086628e-01, 6.00489229e-02, 0., 4.58800532e-02, 0., 0.,
          9.41580459e-02, 2.58296728e-01, 3.10347140e-01, 2.03491598e-02,
          5.11704758e-02, 8.11002962e-03, 4.56060469e-03, 0.,
          8.26808959e-02, 1.31618634e-01, 2.22940505e-01, 0., 0., 0., 0.,
          0., 4.68323044e-02, 2.25616723e-01, 3.26126784e-01,
          1.12759687e-01, 6.83265999e-02, 8.15684423e-02, 2.61836294e-02,
          6.97525218e-02, 9.60298851e-02, 2.17114598e-01 ]
      - [ 2.92761058e-01, 1.64557636e-01, 7.90937990e-02, 7.49866590e-02,
          1.25505313e-01, 9.06083807e-02, 6.42662356e-03, 3.56646739e-02,
          1.32949501e-01, 1.01253740e-01, 5.14272824e-02, 6.34955689e-02,
          1.00253709e-02, 0., 1.18281757e-02, 1.64885640e-01,
          3.22047472e-01, 1.87403988e-02, 0., 8.29673558e-03,
          1.68490522e-02, 5.00100553e-02, 4.97344844e-02, 1.19985223e-01,
          1.93726957e-01, 1.63037688e-01, 8.35145637e-02, 8.29019994e-02,
          1.43036053e-01, 1.20477222e-01, 1.03569552e-01, 1.45991951e-01,
          1.83991671e-01, 6.30019307e-02, 0., 4.14777026e-02,
          7.64258672e-03, 6.26386255e-02, 1.18281757e-02, 2.97369480e-01,
          2.61278063e-01, 2.29450986e-02, 6.59815129e-03, 9.98098869e-03,
          6.24014623e-03, 6.54176027e-02, 4.85766791e-02, 1.25821188e-01,
          1.54767901e-01, 6.57176971e-02, 0., 0., 0., 5.35335243e-02,
          1.43416792e-01, 1.11417368e-01, 3.57935190e-01, 9.06539559e-02,
          6.43819645e-02, 0., 5.54836169e-03, 1.00114301e-01,
          1.57119721e-01, 2.37453640e-01 ]
      - [ 3.95709068e-01, 5.53959496e-02, 0., 0., 8.59556440e-03,
          5.74633926e-02, 7.48180449e-02, 1.57654867e-01, 2.70349443e-01,
          0., 1.27858743e-02, 4.57507232e-03, 8.91227555e-03, 0.,
          5.77251762e-02, 1.03981420e-01, 3.40823740e-01, 2.60586888e-02,
          0., 0., 1.50529854e-02, 0., 5.29927062e-03, 1.29769102e-01,
          3.03332090e-01, 4.21698019e-02, 1.08816907e-01, 6.25476986e-02,
          1.35840133e-01, 8.80245343e-02, 1.11979075e-01, 1.64537132e-01,
          2.08063170e-01, 6.52159676e-02, 4.67567369e-02, 0.,
          9.03199334e-03, 5.93360290e-02, 1.27130449e-01, 9.56917629e-02,
          3.13750535e-01, 6.86564595e-02, 5.44070872e-03, 4.06706482e-02,
          0., 0., 1.03918523e-01, 4.42678481e-02, 2.58267313e-01, 0., 0.,
          0., 5.84545918e-03, 0., 6.91723749e-02, 7.21136108e-02,
          3.44967216e-01, 1.34230601e-02, 6.21251855e-03, 0., 0.,
          3.95009965e-02, 0., 1.26416638e-01 ]
      - [ 2.09208250e-01, 9.74611565e-02, 0., 0., 4.87653632e-03, 0.,
          6.61884248e-02, 2.57606059e-01, 1.63368940e-01, 9.54628363e-02,
          0., 4.01874818e-02, 9.49431583e-03, 4.66192812e-02,
          5.25136366e-02, 3.19134563e-01, 2.16544420e-01, 3.10948081e-02,
          0., 6.13191957e-03, 1.26928240e-02, 0., 7.67163560e-03,
          2.26847857e-01, 1.94201916e-01, 1.27996996e-01, 1.08129464e-01,
          8.68086517e-02, 6.15300722e-02, 1.07070707e-01, 1.01608776e-01,
          2.86110103e-01, 2.14887843e-01, 7.67163560e-03, 0., 0.,
          1.15205403e-02, 0., 0., 2.90478885e-01, 2.17618749e-01,
          5.85758872e-02, 5.88777475e-03, 0., 0., 0., 0., 1.88950241e-01,
          1.58616900e-01, 8.20132345e-03, 0., 2.99694929e-02,
          2.89627034e-02, 2.69390047e-02, 1.85303483e-02, 3.06705892e-01,
          1.71971768e-01, 8.55092034e-02, 2.85600908e-02, 1.06953997e-02,
          4.28632237e-02, 5.88777475e-03, 0., 2.68859833e-01 ]
      - [ 3.71813983e-01, 1.06450073e-01, 0., 3.94241475e-02,
          1.07422732e-02, 1.53828971e-02, 4.71062325e-02, 1.28815606e-01,
          1.84374526e-01, 0., 4.28868718e-02, 0., 0., 0., 8.20163488e-02,
          8.15056711e-02, 2.31218189e-01, 1.37347132e-01, 6.05967315e-03,
          0., 1.03768390e-02, 2.95434576e-02, 4.22038417e-03,
          6.10082299e-02, 2.16950670e-01, 1.19126931e-01, 9.57551822e-02,
          8.28862265e-02, 9.31889042e-02, 9.55458954e-02, 1.67961359e-01,
          1.22318611e-01, 2.59281248e-01, 5.94912544e-02, 4.58913334e-02,
          0., 0., 0., 0., 1.40629143e-01, 4.12362307e-01, 1.22183776e-02,
          0., 0., 0., 0., 5.25248945e-02, 9.48036313e-02, 1.95850506e-01,
          2.98426207e-03, 0., 0., 1.15441158e-02, 3.26094925e-02,
          6.82907924e-02, 1.68759868e-01, 3.19537997e-01, 1.39419004e-01,
          6.09359033e-02, 1.07189849e-01, 4.52452973e-02, 1.12233832e-01,
          1.76538453e-01, 1.87844321e-01 ]
      - [ 2.70017177e-01, 1.92766830e-01, 6.28410280e-02, 6.70673177e-02,
          9.44203138e-03, 2.17290167e-02, 9.54805389e-02, 0.,
          2.03789562e-01, 1.28233880e-01, 8.17432031e-02, 0., 0., 0.,
          8.57593212e-03, 7.83427805e-03, 2.99173504e-01, 2.08584920e-01,
          6.31135032e-02, 1.85213070e-02, 5.45135979e-03, 0., 0.,
          6.46810159e-02, 2.52908558e-01, 1.90145269e-01, 9.53288600e-02,
          7.90392831e-02, 6.41686022e-02, 3.98198403e-02, 1.20369211e-01,
          1.18593931e-01, 1.70457482e-01, 1.54757798e-01, 1.27560481e-01,
          4.77609187e-02, 9.17780846e-02, 2.53973771e-02, 9.32789519e-02,
          1.35204047e-01, 2.41111785e-01, 1.34846658e-01, 6.18192852e-02,
          0., 6.38747066e-02, 5.75150512e-02, 5.46743944e-02,
          2.57342774e-02, 1.59921691e-01, 2.81412274e-01, 1.46126106e-01,
          0., 1.18891820e-02, 0., 4.58402885e-03, 6.15166165e-02,
          3.75505060e-01, 1.75089434e-01, 6.54982850e-02, 0., 0.,
          6.10785484e-02, 0., 8.49613696e-02 ]
      - [ 2.10430384e-01, 1.37544930e-01, 9.24476087e-02, 0.,
          7.42602646e-02, 8.75374004e-02, 1.03426099e-01, 1.93562284e-01,
          1.21555947e-01, 7.99007155e-03, 6.11910112e-02, 8.48532747e-03,
          1.25933886e-02, 6.06229855e-03, 1.02628879e-01, 2.38948628e-01,
          2.36414626e-01, 8.52253884e-02, 8.05844646e-03, 6.67590462e-03,
          1.13182198e-02, 0., 1.12199318e-02, 1.74279302e-01,
          1.60511896e-01, 9.73525494e-02, 1.01147503e-01, 8.48192945e-02,
          7.93903321e-03, 9.34577584e-02, 7.79452249e-02, 2.58775324e-01,
          1.59484461e-01, 1.58156261e-01, 0., 6.92167580e-02,
          7.90783539e-02, 4.44272533e-02, 1.10365376e-01, 3.11204523e-01,
          2.06027195e-01, 5.78693263e-02, 5.55200987e-02, 0., 0., 0.,
          1.21445410e-01, 1.89899117e-01, 1.64429605e-01, 3.66645716e-02,
          2.17641294e-02, 0., 0., 0., 5.79763092e-02, 3.18287045e-01,
          2.37927482e-01, 7.43898302e-02, 6.59904927e-02, 0.,
          9.33445767e-02, 0., 7.54191205e-02, 2.55791217e-01 ]
      - [ 4.96603668e-01, 1.36583686e-01, 5.29409535e-02, 0.,
          4.65993285e-02, 0., 1.41985103e-01, 1.66519731e-01,
          4.37114954e-01, 2.00721920e-01, 0., 4.47716936e-02,
          1.32983755e-02, 0., 0., 1.09668814e-01, 4.08229083e-01,
          1.05152965e-01, 5.93085662e-02, 0., 1.47019075e-02, 0.,
          1.24317678e-02, 5.57394093e-03, 4.22509879e-01, 1.69644415e-01,
          5.64529859e-02, 7.13682622e-02, 7.16237426e-02, 5.92907444e-02,
          0., 1.50023893e-01, 9.91202425e-03, 9.97574721e-03, 0., 0.,
          1.48099558e-02, 0., 8.33498500e-03, 3.92559096e-02,
          6.51906729e-02, 3.08025256e-02, 6.62857015e-03, 1.05940830e-02,
          1.36983385e-02, 1.20484000e-02, 7.45503791e-03, 1.32050076e-02,
          0., 0., 0., 0., 0., 0., 0., 0., 0., 0., 0., 0., 0., 0., 0., 0. ]
      - [ 3.53605300e-01, 1.11981988e-01, 9.01243184e-03, 4.03012857e-02,
          6.76448569e-02, 0., 8.37777257e-02, 1.09167106e-01,
          1.81688756e-01, 6.23291135e-02, 7.65319588e-03, 4.79121394e-02,
          1.45971756e-02, 0., 1.52615890e-01, 1.91519767e-01,
          3.11122119e-01, 2.74910703e-02, 6.88195322e-03, 6.43554516e-03,
          1.25809265e-02, 0., 9.36755911e-02, 9.02166441e-02,
          1.72563165e-01, 1.01196878e-01, 7.23881349e-02, 8.16928297e-02,
          7.48679265e-02, 4.00940925e-02, 1.07592456e-01, 2.42859438e-01,
          1.15556106e-01, 0., 0., 0., 6.47534151e-03, 0., 3.38921789e-03,
          2.23703444e-01, 3.82367849e-01, 9.08174142e-02, 2.48132348e-02,
          6.00268953e-02, 5.11580259e-02, 1.13436542e-01, 1.12149656e-01,
          1.82862297e-01, 1.28202036e-01, 9.10712928e-02, 9.20779109e-02,
          6.78322911e-02, 5.15899919e-02, 5.45128658e-02, 1.02663204e-01,
          1.81443974e-01, 2.92987525e-01, 1.29324660e-01, 3.39462757e-02,
          1.04947932e-01, 0., 4.22938690e-02, 4.79307771e-03,
          7.92681128e-02 ]
      - [ 2.06752956e-01, 1.43607333e-01, 8.00537094e-02, 4.52283286e-02,
          7.35340863e-02, 6.68951645e-02, 1.36603907e-01, 1.78241894e-01,
          1.17506392e-01, 7.28320032e-02, 0., 0., 1.27495090e-02,
          4.45828214e-02, 8.00010040e-02, 2.43318602e-01, 2.63218671e-01,
          2.28512771e-02, 0., 0., 1.84039790e-02, 5.46674104e-03,
          5.32462634e-03, 1.83050796e-01, 2.23472074e-01, 4.29022536e-02,
          2.15259399e-02, 0., 6.32479787e-02, 1.94700696e-02,
          8.42209160e-02, 2.78499424e-01, 1.96291775e-01, 1.22135736e-01,
          0., 9.47116688e-02, 5.88966459e-02, 1.02324001e-01,
          5.57351001e-02, 3.15079808e-01, 1.97638929e-01, 8.18123817e-02,
          0., 0., 0., 0., 4.86938357e-02, 1.94820598e-01, 1.98839888e-01,
          4.91837114e-02, 0., 3.45064364e-02, 0., 0., 4.86961566e-02,
          3.44745964e-01, 2.02195704e-01, 0., 7.70488456e-02,
          4.87665795e-02, 0., 7.29630888e-02, 0., 2.28688568e-01 ]
      - [ 3.38808477e-01, 7.03752488e-02, 7.65106082e-02, 0.,
          9.82355773e-02, 7.33474419e-02, 6.85133459e-03, 0.,
          2.94078201e-01, 7.53186410e-03, 5.39550185e-03, 0.,
          1.14100976e-02, 0., 5.68605922e-02, 1.39303774e-01,
          1.83926523e-01, 5.65019324e-02, 6.34058267e-02, 4.53705806e-03,
          1.30095128e-02, 0., 0., 7.32165053e-02, 2.34326586e-01,
          9.14340094e-02, 7.39753693e-02, 4.30676788e-02, 8.13430548e-02,
          1.03697062e-01, 1.40806437e-01, 2.04540893e-01, 3.07329595e-01,
          6.83168918e-02, 7.73193464e-02, 1.05640955e-01, 1.19670108e-02,
          7.32075945e-02, 7.15022311e-02, 7.37547576e-02, 3.91825527e-01,
          1.02451351e-02, 0., 0., 0., 0., 4.46117856e-02, 1.03225738e-01,
          2.10060999e-01, 0., 0., 1.08357050e-01, 1.51661709e-01,
          4.68799584e-02, 3.52516100e-02, 6.24657311e-02, 2.98606664e-01,
          9.93079543e-02, 9.28824618e-02, 1.15068786e-01, 9.30589065e-02,
          1.21950328e-01, 1.06071495e-01, 1.15270413e-01 ]
      - [ 3.35112512e-01, 6.96209911e-03, 0., 6.01065857e-03,
          1.22627420e-02, 1.23805571e-02, 0., 1.46355093e-01,
          2.42659122e-01, 9.21002477e-02, 0., 0., 0., 0., 7.13335872e-02,
          9.17054638e-02, 2.09726632e-01, 1.77722685e-02, 0.,
          6.01065857e-03, 1.35201672e-02, 5.74484952e-02, 0.,
          6.84082285e-02, 4.60976250e-02, 8.03913921e-03, 5.73200174e-02,
          1.04107661e-02, 7.30258673e-02, 1.04713492e-01, 1.26724079e-01,
          2.10720301e-01, 3.29328388e-01, 1.72786862e-01, 0.,
          6.92869276e-02, 0., 5.92571758e-02, 3.36320102e-02,
          1.79488599e-01, 3.97491902e-01, 5.68452990e-03, 0.,
          6.01065857e-03, 0., 5.81501126e-02, 0., 1.33667976e-01,
          2.22864375e-01, 1.10367820e-01, 7.02215806e-02, 0., 0., 0.,
          8.98803119e-03, 8.44840705e-02, 3.58379960e-01, 1.51324436e-01,
          1.84551373e-01, 7.91500360e-02, 8.16952586e-02, 9.99738052e-02,
          1.40199028e-02, 9.14952755e-02 ]
      - [ 9.53900740e-02, 9.46448222e-02, 6.76897494e-03, 7.18138888e-02,
          7.23224506e-02, 8.92413408e-02, 6.50900900e-02, 2.29753733e-01,
          4.21794653e-02, 7.93101173e-03, 6.95631234e-03, 0.,
          1.24120638e-02, 8.76390468e-03, 1.75100304e-02, 2.87466764e-01,
          2.11622223e-01, 2.76097432e-02, 2.39869766e-02, 8.96503683e-03,
          1.73191000e-02, 7.53866695e-03, 1.01146121e-02, 1.77800000e-01,
          1.18004300e-01, 7.02883601e-02, 0., 8.51967651e-03,
          5.31996414e-02, 2.06369217e-02, 8.13775882e-02, 2.47603193e-01,
          1.83187440e-01, 7.47264251e-02, 1.16046406e-01, 1.03385471e-01,
          6.53536394e-02, 1.12352051e-01, 8.00274909e-02, 3.63630116e-01,
          1.38609648e-01, 4.06583734e-02, 4.46289070e-02, 0.,
          8.73197895e-03, 4.57063429e-02, 1.17039166e-01, 2.64165133e-01,
          1.82032719e-01, 0., 4.73849103e-02, 4.45993580e-02,
          5.31151928e-02, 4.35588844e-02, 1.01688966e-01, 3.54841739e-01,
          1.65005565e-01, 1.10676989e-01, 8.89584497e-02, 4.31010835e-02,
          0., 1.22923344e-01, 1.39513627e-01, 2.52128005e-01 ]
      - [ 3.32266867e-01, 8.36049318e-02, 1.08228721e-01, 6.87605888e-02,
          6.98054768e-03, 6.83889613e-02, 8.39047208e-02, 9.44768339e-02,
          2.44925663e-01, 0., 0., 0., 9.87198576e-03, 5.92775643e-03,
          1.19144589e-01, 1.24202438e-01, 3.33082020e-01, 1.30900934e-01,
          1.81892477e-02, 3.03360615e-02, 1.17319338e-02, 5.33039309e-03,
          4.54681879e-03, 1.06625952e-01, 2.23555669e-01, 1.52068242e-01,
          0., 0., 1.04483634e-01, 5.50448745e-02, 6.47809654e-02,
          1.41265154e-01, 2.62535483e-01, 0., 3.31483744e-02, 0., 0.,
          8.81304368e-02, 1.04968056e-01, 1.57735437e-01, 3.17295641e-01,
          1.40250981e-01, 0., 0., 2.96200681e-02, 0., 0., 9.25032943e-02,
          3.00024241e-01, 0., 0., 0., 0., 0., 1.19918801e-01,
          1.35316223e-01, 3.56616497e-01, 7.70142376e-02, 5.56263328e-02,
          0., 0., 0., 3.56257632e-02, 0. ]
      - [ 3.28733712e-01, 1.53232709e-01, 1.03613816e-01, 7.26932064e-02,
          6.27750158e-02, 4.90985997e-02, 1.14992611e-01, 2.13154584e-01,
          1.37015104e-01, 4.24322672e-03, 0., 8.51941202e-03,
          1.04522845e-02, 9.12295748e-03, 7.34948460e-03, 0.,
          3.00637454e-01, 4.78187390e-02, 5.33557544e-03, 7.24521000e-03,
          1.00921514e-02, 7.54564302e-03, 4.89048213e-02, 7.75474533e-02,
          2.90401995e-01, 1.29876032e-01, 7.68819973e-02, 8.05278420e-02,
          1.44536957e-01, 6.02106266e-02, 1.22754730e-01, 2.26123035e-01,
          2.70148873e-01, 1.05488598e-01, 0., 2.56367549e-02,
          5.85214272e-02, 4.67133075e-02, 1.03652440e-01, 2.16350436e-01,
          2.96441764e-01, 9.08203144e-03, 0., 0., 0., 0., 0.,
          7.23372921e-02, 2.16540426e-01, 0., 0., 0., 6.83060959e-02, 0.,
          5.00159264e-02, 1.09211758e-01, 3.23628247e-01, 8.27877745e-02,
          8.08400139e-02, 3.74319740e-02, 2.76624542e-02, 7.29467720e-02,
          9.52127874e-02, 1.44595370e-01 ]
      - [ 3.42424721e-01, 2.35327974e-01, 6.34015957e-03, 0.,
          1.24202445e-02, 0., 8.85056145e-03, 0., 1.73395038e-01,
          1.52446374e-01, 8.05088319e-03, 5.33141755e-03, 1.56252068e-02,
          2.96717137e-02, 1.30144721e-02, 7.18354955e-02, 3.39699358e-01,
          1.65287003e-01, 5.67814596e-02, 0., 9.98814870e-03,
          7.23956386e-03, 7.23956386e-03, 0., 2.81196237e-01,
          2.16833860e-01, 6.75054491e-02, 0., 4.74776328e-02, 0.,
          4.83774990e-02, 1.37548611e-01, 1.55787960e-01, 7.98990503e-02,
          6.47198707e-02, 3.54782417e-02, 3.73357795e-02, 6.97240829e-02,
          8.60625580e-02, 1.21543489e-01, 2.82419503e-01, 2.32552320e-01,
          5.75131662e-02, 7.97232892e-03, 0., 7.23956386e-03, 0., 0.,
          1.34132713e-01, 2.72864997e-01, 8.88995901e-02, 3.28568630e-02,
          5.48661016e-02, 0., 5.04214317e-03, 1.58880055e-01,
          2.71896750e-01, 2.17294872e-01, 8.27369839e-03, 5.33141755e-03,
          0., 0., 0., 1.19101301e-01 ]
      - [ 2.97886163e-01, 1.30984247e-01, 7.67110512e-02, 6.04961850e-02,
          4.21041101e-02, 4.67585437e-02, 6.52392348e-03, 1.66647553e-01,
          2.26344109e-01, 1.04150489e-01, 0., 6.05611876e-02,
          4.62504514e-02, 4.59219441e-02, 8.12927336e-02, 2.37368077e-01,
          2.52837151e-01, 1.29040703e-01, 0., 6.89820945e-03,
          1.09718880e-02, 3.01024951e-02, 7.06179291e-02, 1.67730406e-01,
          2.79658794e-01, 1.22350030e-01, 4.53533791e-02, 0.,
          5.35332561e-02, 0., 4.93455008e-02, 2.82428682e-01,
          9.09514576e-02, 6.95843101e-02, 7.62771517e-02, 6.64946884e-02,
          1.39808893e-01, 1.09295800e-01, 1.27441883e-01, 2.30719477e-01,
          2.30661497e-01, 8.47950950e-02, 0., 0., 0., 3.68879810e-02,
          6.11021556e-02, 1.81921512e-01, 4.99793291e-02, 8.78301114e-02,
          2.89463829e-02, 0., 5.12106754e-02, 0., 9.71470028e-02,
          2.03111589e-01, 2.12684423e-01, 8.59207883e-02, 7.90525302e-02,
          7.57675692e-02, 9.43113267e-02, 7.90381357e-02, 1.08620651e-01,
          2.14365944e-01 ]
      - [ 3.56900543e-01, 6.27885684e-02, 1.14670910e-01, 0.,
          4.92846267e-03, 6.78477362e-02, 6.14447445e-02, 0.,
          2.77423739e-01, 4.14432678e-03, 0., 0., 6.96989894e-03, 0.,
          5.07431142e-02, 1.43024385e-01, 3.27143639e-01, 1.45486549e-01,
          0., 2.93956418e-02, 9.22030956e-03, 0., 0., 0., 2.76216507e-01,
          1.03121325e-01, 7.79470652e-02, 0., 7.34300688e-02,
          7.41760880e-02, 9.77236032e-02, 1.20811366e-01, 2.28232607e-01,
          7.18417838e-02, 5.76307252e-02, 7.13360533e-02, 5.83175831e-02,
          3.00542451e-02, 1.58639684e-01, 1.44407123e-01, 3.01585257e-01,
          1.00312866e-01, 2.34178994e-02, 0., 3.06063108e-02,
          3.47585306e-02, 0., 7.37039596e-02, 2.29585275e-01,
          8.47871974e-02, 5.19129820e-02, 4.38209204e-03, 7.79258413e-03,
          0., 0., 1.29946291e-01, 3.65224957e-01, 6.73570409e-02,
          4.77243029e-02, 9.23968181e-02, 3.61463577e-02, 3.98002081e-02,
          1.17812417e-01, 1.40303731e-01 ]
      - [ 3.09058547e-01, 1.68932587e-01, 8.71444866e-02, 5.67564070e-02,
          6.54280782e-02, 6.24348186e-02, 1.10416070e-01, 8.77649039e-02,
          1.23074092e-01, 1.80944741e-01, 5.47205582e-02, 1.96789894e-02,
          8.06837436e-03, 0., 5.58219887e-02, 1.55509040e-01,
          3.08017343e-01, 1.14114180e-01, 0., 8.75896774e-03,
          4.67976704e-02, 4.03474756e-02, 0., 1.26610130e-01,
          1.11654237e-01, 1.12022668e-01, 0., 6.18197396e-02,
          9.16047394e-02, 1.37594983e-01, 1.17181726e-01, 1.26283869e-01,
          2.94955194e-01, 1.05482399e-01, 0., 1.65739078e-02, 0.,
          5.20153865e-02, 0., 1.37326851e-01, 4.08031762e-01,
          1.81801487e-02, 0., 0., 3.29390005e-03, 0., 0., 7.63773918e-02,
          2.49461621e-01, 3.04681174e-02, 3.75709534e-02, 0.,
          6.58780010e-03, 3.78369130e-02, 7.32827792e-03, 1.06990859e-01,
          3.83944452e-01, 9.78804603e-02, 9.17905048e-02, 1.12694558e-02,
          4.32050377e-02, 0., 8.45797509e-02, 4.14186018e-03 ]
      - [ 3.37358594e-01, 1.59622952e-01, 8.67524091e-03, 9.80415288e-03,
          9.01666731e-02, 3.51862945e-02, 1.62163489e-02, 8.93448852e-03,
          4.74129133e-02, 1.36725903e-02, 0., 1.13583077e-02,
          1.72799584e-02, 6.13432191e-03, 1.19989058e-02, 1.59042239e-01,
          3.28521490e-01, 7.34509975e-02, 1.41341910e-02, 8.93448852e-03,
          1.71545632e-02, 1.06369555e-02, 9.12673771e-03, 6.55016722e-03,
          1.10659055e-01, 1.77195966e-01, 1.09977424e-01, 1.15443051e-01,
          1.39604593e-02, 9.12843868e-02, 7.46277198e-02, 1.54704168e-01,
          1.56912789e-01, 1.24377511e-01, 6.45531714e-02, 1.02551222e-01,
          1.79600209e-01, 7.78765529e-02, 6.92332387e-02, 3.00814867e-01,
          3.29160243e-01, 0., 0., 0., 0., 6.13432191e-03, 4.07163501e-02,
          1.21703252e-01, 1.27274886e-01, 7.83767458e-03, 0.,
          5.15832938e-03, 5.80148352e-03, 8.00508726e-03, 6.89916546e-03,
          2.28454754e-01, 3.41367334e-01, 9.85535420e-03, 6.03456311e-02,
          1.15589060e-01, 1.32672936e-01, 1.17697634e-01, 1.60335124e-01,
          1.69138059e-01 ]
      - [ 1.23809166e-01, 6.77770376e-02, 8.55139196e-02, 9.44589302e-02,
          5.64276846e-03, 7.00278655e-02, 7.05587715e-02, 2.25747213e-01,
          1.43451452e-01, 0., 0., 0., 9.21460241e-03, 5.56270871e-03,
          1.03991561e-01, 3.58466119e-01, 1.90524593e-01, 3.72155197e-02,
          6.75654272e-03, 0., 6.51570782e-03, 2.46028788e-02,
          3.89580280e-02, 2.46181980e-01, 8.92133489e-02, 6.77330345e-02,
          0., 6.81208372e-02, 0., 6.98894411e-02, 9.60921571e-02,
          3.48090827e-01, 1.07014544e-01, 4.05428484e-02, 0., 0.,
          1.12209626e-01, 2.92730872e-02, 6.79660141e-02, 3.49352002e-01,
          1.85369134e-01, 0., 0., 0., 0., 0., 9.05238762e-02,
          2.40025580e-01, 1.32384449e-01, 0., 0., 0., 8.61947145e-03, 0.,
          9.68055520e-03, 3.62357944e-01, 1.49786294e-01, 6.25566095e-02,
          7.12198615e-02, 0., 7.97279999e-02, 0., 1.44590428e-02,
          2.22762614e-01 ]
      - [ 3.64149153e-01, 7.05846250e-02, 7.61166736e-02, 3.41534652e-02,
          8.53501074e-03, 3.94437648e-02, 5.21039870e-03, 1.08954430e-01,
          2.94293463e-01, 3.22352014e-02, 5.21039870e-03, 0.,
          6.03516446e-03, 0., 5.72130866e-02, 2.39011154e-01,
          2.42366537e-01, 1.66411344e-02, 7.79136363e-03, 7.99568295e-02,
          5.90293407e-02, 0., 7.65119866e-02, 8.05485174e-02,
          2.04116762e-01, 1.59746364e-01, 8.31811950e-02, 6.36360049e-02,
          1.00581467e-01, 1.09828606e-01, 1.13552123e-01, 1.33445293e-01,
          2.01274723e-01, 1.31983727e-01, 0., 0., 4.54131737e-02,
          5.26082367e-02, 6.22877218e-02, 1.81693673e-01, 3.43629301e-01,
          1.29294857e-01, 4.46745306e-02, 0., 0., 3.21246162e-02,
          9.01889503e-02, 1.03029706e-01, 2.24687800e-01, 1.28749356e-01,
          0., 0., 0., 0., 6.55172952e-03, 0., 3.15528005e-01,
          6.66551366e-02, 1.05038844e-01, 9.61194038e-02, 8.53501074e-03,
          7.68528357e-02, 8.42253044e-02, 1.44240826e-01 ]
      - [ 2.34218448e-01, 1.42773494e-01, 0., 2.85732709e-02,
          1.27473390e-02, 5.82413003e-03, 2.31426246e-02, 0.,
          9.99169331e-03, 6.55029807e-03, 5.82413003e-03, 4.89749014e-03,
          1.16844922e-02, 0., 8.02244432e-03, 2.73702592e-01,
          2.74628878e-01, 1.57569274e-01, 2.29665134e-02, 7.91585259e-03,
          1.29941776e-02, 8.23656376e-03, 5.67272445e-03, 5.88418879e-02,
          1.29702598e-01, 1.31421357e-01, 1.22999884e-01, 0.,
          8.56847018e-02, 8.67827013e-02, 7.20201731e-02, 1.82118684e-01,
          1.51323944e-01, 1.45271778e-01, 1.03259206e-01, 1.04661889e-01,
          1.79434031e-01, 1.38507649e-01, 1.46410331e-01, 3.25512350e-01,
          1.62589595e-01, 6.63962662e-02, 1.04589816e-02, 0., 0., 0.,
          1.32142510e-02, 1.79247424e-01, 1.14777863e-01, 1.15344629e-01,
          5.91585450e-02, 6.95572346e-02, 4.84902486e-02, 0.,
          1.01960123e-01, 2.42943913e-01, 1.40338644e-01, 1.77716121e-01,
          1.17163703e-01, 1.84372261e-01, 1.17972963e-01, 1.99548244e-01,
          1.34942621e-01, 2.35989049e-01 ]
      - [ 3.01775634e-01, 1.01934090e-01, 7.70091861e-02, 7.82829300e-02,
          1.17861070e-01, 9.08039138e-02, 6.02547824e-02, 8.24028254e-02,
          2.48890758e-01, 0., 4.12047356e-02, 0., 5.69580682e-03,
          4.52646390e-02, 1.22673072e-01, 1.71740398e-01, 3.64095926e-01,
          1.08974323e-01, 0., 3.24323848e-02, 1.47065101e-02,
          3.16333212e-02, 9.08510759e-02, 1.25524297e-01, 2.09852070e-01,
          1.26510724e-01, 1.18567673e-02, 0., 1.03990734e-02, 0.,
          4.44423594e-02, 1.39816850e-01, 2.13764310e-01, 9.19475034e-02,
          0., 4.51572016e-02, 6.16676360e-02, 5.32683320e-02,
          8.03954005e-02, 8.61673728e-02, 3.60839754e-01, 5.16721569e-02,
          0., 0., 0., 0., 6.56893104e-02, 1.41908184e-01, 2.86541402e-01,
          3.18014547e-02, 0., 0., 3.42162028e-02, 0., 1.03507325e-01,
          1.95299923e-01, 3.48311454e-01, 3.91067844e-03, 0., 0.,
          1.03990734e-02, 0., 2.76526739e-03, 4.97805364e-02 ]
      - [ 2.75424927e-01, 1.21252328e-01, 8.40448141e-02, 6.68936223e-02,
          5.06385304e-02, 4.75226231e-02, 7.64811262e-02, 1.42735839e-01,
          1.94106892e-01, 6.06151391e-03, 6.92139007e-03, 6.47242367e-03,
          1.25264823e-02, 2.26547830e-02, 1.20648526e-01, 2.44433030e-01,
          2.55207062e-01, 7.83281252e-02, 1.28185414e-02, 8.23849160e-03,
          1.44524649e-02, 0., 5.15916757e-02, 1.23651311e-01,
          1.99954897e-01, 8.68008211e-02, 6.88723400e-02, 5.09710517e-03,
          7.38458708e-02, 8.12499076e-02, 1.34975821e-01, 2.47914582e-01,
          1.99541792e-01, 0., 0., 8.99278969e-02, 7.17114657e-02,
          3.60347666e-02, 7.20576122e-02, 2.74081528e-01, 2.86987901e-01,
          7.91355744e-02, 5.85695133e-02, 4.15626541e-02, 3.96930724e-02,
          4.28665169e-02, 8.88447389e-02, 1.39776602e-01, 1.99940324e-01,
          0., 4.90535125e-02, 0., 0., 0., 9.35556963e-02, 1.74871430e-01,
          3.54578048e-01, 4.03661914e-02, 7.84829035e-02, 7.13811964e-02,
          3.86283360e-02, 0., 1.18046068e-01, 1.59254581e-01 ]
      - [ 2.71040648e-01, 1.06108829e-01, 8.59540924e-02, 5.37923798e-02,
          1.17868613e-02, 7.40965679e-02, 1.16451345e-01, 1.10592403e-01,
          1.56797454e-01, 7.10915476e-02, 6.34692190e-03, 0.,
          1.28476107e-02, 0., 4.01501246e-02, 2.69635260e-01,
          2.34596491e-01, 7.32151642e-02, 3.65860276e-02, 1.09701874e-02,
          1.31379990e-02, 1.15335518e-02, 1.07074091e-02, 1.57463863e-01,
          1.73565954e-01, 1.14843331e-01, 6.34692190e-03, 1.04452193e-01,
          1.47744846e-02, 1.00998528e-01, 9.20960978e-02, 2.22013295e-01,
          1.96659803e-01, 6.11291490e-02, 6.60026819e-02, 3.76891084e-02,
          5.33710374e-03, 0., 2.18069091e-01, 2.29387552e-01,
          3.13222915e-01, 3.83720659e-02, 5.09884879e-02, 4.34916094e-02,
          0., 0., 0., 2.14533105e-01, 1.68848127e-01, 0., 0., 0., 0., 0.,
          6.18192554e-03, 1.51919946e-01, 3.23229700e-01, 1.07855961e-01,
          9.98433083e-02, 6.21882305e-02, 1.26931474e-01, 6.04525246e-02,
          1.05727062e-01, 2.21099108e-01 ]
      - [ 3.26759756e-01, 9.86582190e-02, 3.76508646e-02, 7.95914754e-02,
          6.39372915e-02, 3.40513252e-02, 7.10082203e-02, 1.83097035e-01,
          1.59307629e-01, 2.81640794e-03, 3.85566838e-02, 0.,
          1.11083463e-02, 1.23541011e-02, 1.14979535e-01, 1.82625130e-01,
          3.67157012e-01, 3.93620543e-02, 1.26830703e-02, 0.,
          1.26043260e-02, 0., 4.87816148e-03, 1.24417603e-01,
          2.60788739e-01, 0., 3.61192115e-02, 0., 1.03672035e-02,
          3.60111669e-02, 1.11677200e-01, 1.84045717e-01, 2.43584469e-01,
          4.54509556e-02, 0., 0., 8.86139460e-03, 4.03983817e-02,
          1.73281938e-01, 2.19760075e-01, 3.17806482e-01, 5.67038730e-02,
          0., 0., 6.69858465e-03, 0., 3.98300216e-03, 1.48888797e-01,
          2.26479501e-01, 2.69668363e-02, 4.25410159e-02, 0.,
          2.53735688e-02, 3.28819081e-02, 4.94072102e-02, 2.13291496e-01,
          3.28932047e-01, 0., 0., 2.93644834e-02, 5.66533357e-02, 0.,
          5.09861298e-02, 5.22703677e-02 ]
      - [ 1.17429234e-01, 7.31655806e-02, 6.80485591e-02, 1.43784627e-01,
          1.17427744e-01, 7.60602280e-02, 8.08592364e-02, 1.86714545e-01,
          8.73468146e-02, 0., 0., 0., 9.19621624e-03, 0., 9.00250301e-03,
          3.60699326e-01, 1.78651854e-01, 4.13763374e-02, 0.,
          7.57017266e-03, 6.95168599e-03, 0., 0., 1.91032916e-01,
          1.17603093e-01, 1.07409105e-01, 0., 7.90176690e-02,
          6.02033641e-03, 7.42790028e-02, 7.33904690e-02, 3.48755509e-01,
          1.26162171e-01, 8.58862028e-02, 8.95978287e-02, 7.10910112e-02,
          1.04409650e-01, 0., 6.47846162e-02, 3.28630656e-01,
          1.99148685e-01, 6.58293366e-02, 0., 4.38564233e-02,
          1.34618813e-02, 3.41022648e-02, 7.19435290e-02, 1.63462698e-01,
          1.37673065e-01, 5.19759767e-03, 0., 2.55267825e-02,
          1.96623374e-02, 8.29910021e-03, 0., 3.80119830e-01,
          1.76789284e-01, 5.56732193e-02, 6.62166029e-02, 7.68796653e-02,
          7.70670548e-02, 7.66840056e-02, 1.27755195e-01, 2.15107784e-01 ]
      - [ 1.12555750e-01, 9.27956328e-02, 9.65318084e-02, 6.85847700e-02,
          1.15296952e-01, 7.33818263e-02, 8.41109008e-02, 2.26573989e-01,
          6.92410171e-02, 5.36687337e-02, 0., 2.35806536e-02,
          7.59052485e-03, 6.44573756e-03, 0., 2.65267313e-01,
          1.83019027e-01, 3.63531969e-02, 0., 5.42019773e-03,
          8.01951718e-03, 0., 8.56348500e-03, 2.82843173e-01,
          1.18292041e-01, 6.43555224e-02, 0., 0., 1.42831989e-02,
          2.93449163e-02, 1.15904443e-01, 2.62581855e-01, 1.86250925e-01,
          1.30602926e-01, 9.03503299e-02, 4.40023690e-02, 1.19557284e-01,
          6.15134649e-02, 9.57886949e-02, 3.37286115e-01, 1.20088868e-01,
          0., 0., 0., 0., 0., 9.88652036e-02, 2.42195502e-01,
          1.77141666e-01, 0., 0., 0., 5.28073646e-02, 0., 0.,
          3.30027312e-01, 1.70863256e-01, 5.81374913e-02, 6.79093748e-02,
          0., 8.00983459e-02, 4.82262224e-02, 1.02360047e-01,
          3.27320099e-01 ]
      - [ 2.55919486e-01, 1.08006962e-01, 6.84302896e-02, 3.74379084e-02,
          7.50592947e-02, 0., 6.15574867e-02, 2.05340117e-01,
          1.90071568e-01, 8.50133412e-03, 6.49637496e-03, 0.,
          1.29631720e-02, 0., 9.18726157e-03, 2.44621888e-01,
          2.50456661e-01, 1.49256185e-01, 8.56774598e-02, 5.03865816e-02,
          7.44413212e-03, 5.68438927e-03, 4.84877685e-03, 1.80328876e-01,
          1.57399535e-01, 1.40663847e-01, 1.36676580e-01, 1.49850212e-02,
          8.15463811e-03, 1.18584022e-01, 1.25457048e-01, 1.33225217e-01,
          2.58171678e-01, 5.59888547e-03, 4.85966615e-02, 5.31566283e-03,
          9.31016281e-02, 3.91942784e-02, 1.27750918e-01, 2.54449219e-01,
          2.52679080e-01, 1.28017768e-01, 4.97819111e-03, 0.,
          3.86699475e-02, 0., 4.84877685e-03, 1.80647954e-01,
          2.09090114e-01, 9.51203927e-02, 8.04628991e-03, 5.05585559e-02,
          1.05275931e-02, 0., 8.26328695e-02, 2.37574100e-01,
          2.31123239e-01, 1.49453625e-01, 9.22599658e-02, 5.44899516e-02,
          1.28936153e-02, 6.49637496e-03, 9.81471688e-02, 1.99086219e-01 ]
      - [ 1.62087366e-01, 1.08698383e-01, 9.48229358e-02, 8.17295611e-02,
          6.51577190e-02, 6.76729307e-02, 9.24589783e-02, 2.02729210e-01,
          9.98085067e-02, 4.98674717e-03, 5.11984434e-03, 0.,
          7.65595259e-03, 5.11984434e-03, 1.92539170e-02, 3.15338224e-01,
          1.62157208e-01, 3.32076885e-02, 0., 8.86095874e-03,
          1.02715390e-02, 0., 5.75819984e-03, 2.24759042e-01,
          1.34012654e-01, 9.51059759e-02, 8.53672996e-02, 0.,
          3.96500155e-02, 9.54753533e-02, 9.93272662e-02, 3.44801247e-01,
          7.26307482e-02, 7.24059865e-02, 4.90673035e-02, 7.58622661e-02,
          0., 9.30395424e-02, 8.97573382e-02, 3.80347878e-01,
          7.85994604e-02, 0., 0., 0., 0., 0., 0., 2.60113686e-01,
          1.51738867e-01, 1.03236295e-01, 0., 0., 0., 0., 1.94813311e-02,
          3.61097962e-01, 1.63065076e-01, 7.73717165e-02, 6.01896606e-02,
          8.73336047e-02, 7.48698562e-02, 0., 1.76111162e-01,
          1.64926589e-01 ]
      - [ 1.39713913e-01, 7.53087699e-02, 1.00188315e-01, 1.04231738e-01,
          7.09280148e-02, 8.49409103e-02, 7.64560178e-02, 1.71022534e-01,
          1.23120390e-01, 3.86084244e-02, 0., 2.38463674e-02,
          1.01783304e-02, 5.07338485e-03, 1.66558996e-02, 3.25064361e-01,
          1.79737195e-01, 1.01167567e-01, 1.31329903e-02, 0.,
          1.33922910e-02, 5.79308625e-03, 6.98833028e-03, 1.66809097e-01,
          2.16814950e-01, 1.18867926e-01, 7.29615465e-02, 2.65286975e-02,
          3.05467639e-02, 7.47057647e-02, 1.27890766e-01, 2.75393456e-01,
          1.49881750e-01, 0., 8.67283195e-02, 0., 1.17009297e-01,
          7.32633993e-02, 6.79631084e-02, 3.51126939e-01, 1.51023135e-01,
          5.33690080e-02, 0., 0., 8.97644367e-03, 7.70058995e-03,
          1.00785397e-01, 2.05132708e-01, 1.90774381e-01, 0., 0., 0.,
          6.78555341e-03, 0., 2.63276733e-02, 3.32222939e-01,
          1.81866720e-01, 1.04394227e-01, 9.10268128e-02, 5.82448542e-02,
          6.82612136e-02, 7.65560940e-02, 1.21917941e-01, 2.51133621e-01 ]
      - [ 1.48169145e-01, 5.84159009e-02, 1.34760007e-01, 9.70023647e-02,
          9.33922827e-03, 1.08926669e-01, 9.62786004e-02, 1.33259982e-01,
          1.33689404e-01, 4.63493727e-02, 0., 2.35611070e-02,
          1.04415743e-02, 4.13468927e-02, 6.50232956e-02, 3.12030524e-01,
          2.16317445e-01, 3.89667451e-02, 0., 0., 7.38330791e-03, 0.,
          5.05991615e-02, 1.46422178e-01, 2.25742206e-01, 8.96538794e-02,
          6.26715273e-02, 5.27222967e-03, 4.31542955e-02, 4.98156995e-02,
          1.13345310e-01, 2.89517701e-01, 1.33323327e-01, 9.49442014e-02,
          0., 0., 8.50756168e-02, 1.02080815e-01, 8.07722807e-02,
          3.48059833e-01, 1.52285084e-01, 5.79069480e-02, 2.33690552e-02,
          4.07599732e-02, 1.12367738e-02, 3.65002081e-02, 1.01429388e-01,
          2.01841742e-01, 2.00171396e-01, 6.06152490e-02, 0., 0., 0., 0.,
          1.28637124e-02, 3.53090167e-01, 1.98460355e-01, 9.09517556e-02,
          6.06449395e-02, 0., 8.18868056e-02, 0., 4.56293188e-02,
          2.56333143e-01 ]
      - [ 1.91614613e-01, 8.57961029e-02, 9.47869346e-02, 1.04079463e-01,
          1.21750543e-02, 6.91917315e-02, 9.35018063e-02, 2.04158932e-01,
          1.00294605e-01, 5.74472174e-03, 0., 4.29518148e-03,
          8.74180067e-03, 0., 2.02122051e-02, 3.05831522e-01,
          1.61340564e-01, 3.30127440e-02, 0., 4.29518148e-03,
          8.36704485e-03, 0., 0., 2.33312443e-01, 1.19226716e-01,
          9.46074575e-02, 8.54117870e-02, 4.29518148e-03, 8.02115947e-02,
          6.59791902e-02, 9.90563035e-02, 3.44808728e-01, 7.28621855e-02,
          7.20976815e-02, 4.83463593e-02, 6.94855228e-02, 6.61556870e-02,
          7.26877004e-02, 9.02124494e-02, 3.80407244e-01, 7.82665387e-02,
          0., 0., 0., 0., 0., 0., 2.60879964e-01, 1.51334286e-01,
          1.02625243e-01, 0., 0., 0., 0., 1.92336347e-02, 3.65702003e-01,
          1.49292648e-01, 7.72340745e-02, 6.03520423e-02, 8.65221694e-02,
          7.43550584e-02, 0., 1.76114142e-01, 1.64831713e-01 ]
      - [ 2.14595318e-01, 1.03012010e-01, 8.83068889e-02, 1.72597617e-01,
          1.39757335e-01, 1.42747819e-01, 6.27268106e-02, 4.78712283e-03,
          8.76766890e-02, 6.89448491e-02, 1.05864704e-01, 1.25679404e-01,
          1.67586565e-01, 8.17064047e-02, 9.36873928e-02, 1.35361061e-01,
          2.54760027e-01, 6.09282963e-02, 8.87822062e-02, 7.73746520e-03,
          8.05848837e-02, 6.46407157e-02, 1.23195492e-01, 1.61732003e-01,
          2.19849631e-01, 7.15841865e-03, 6.85353652e-02, 0.,
          8.64997059e-02, 1.28890857e-01, 1.36903524e-01, 1.57144621e-01,
          1.40232563e-01, 9.91184488e-02, 0., 1.90353647e-01,
          4.67140675e-02, 8.42925310e-02, 1.04154103e-01, 1.87705547e-01,
          2.66277581e-01, 1.07375599e-01, 8.58860388e-02, 3.98381278e-02,
          6.08860850e-02, 1.00143306e-01, 2.49476600e-02, 1.74503952e-01,
          2.44172648e-01, 6.81098029e-02, 0., 0., 8.10080301e-03,
          5.11880293e-02, 6.20254651e-02, 8.91473666e-02, 2.89995968e-01,
          2.14563727e-01, 4.40188758e-02, 0., 0., 0., 9.61713195e-02,
          1.84497014e-01 ]
      - [ 2.45903969e-01, 1.57927379e-01, 8.86428505e-02, 1.02792300e-01,
          1.79826960e-01, 1.26209691e-01, 5.96022084e-02, 9.47042331e-02,
          1.21523365e-01, 7.84123912e-02, 8.19068402e-03, 1.16068445e-01,
          1.21767111e-01, 1.17470659e-01, 1.33736312e-01, 1.65298343e-01,
          1.47305429e-01, 1.32785559e-01, 0., 5.27792471e-03,
          1.46381315e-02, 6.27654558e-03, 8.19073394e-02, 1.44424871e-01,
          1.46549687e-01, 1.84789911e-01, 0., 8.04995969e-02,
          9.91606992e-03, 8.09610114e-02, 2.37121031e-01, 2.43613005e-01,
          1.72565892e-01, 9.22373906e-02, 9.41152498e-02, 0.,
          3.33062150e-02, 6.50178939e-02, 5.99405207e-02, 1.80463508e-01,
          3.37702274e-01, 8.94917473e-02, 1.07185533e-02, 0.,
          5.70936538e-02, 5.10682724e-02, 1.16967708e-01, 1.03534073e-01,
          1.70150131e-01, 6.51864931e-02, 0., 0., 0., 0., 6.11337880e-03,
          1.54089704e-01, 3.08034241e-01, 1.63803846e-01, 0.,
          7.51119629e-02, 3.89222614e-02, 9.88197625e-02, 1.42856568e-01,
          1.35913238e-01 ]
      - [ 2.79782146e-01, 9.13838968e-02, 8.65595862e-02, 1.46556839e-01,
          1.36300057e-01, 6.22236403e-03, 9.89692751e-03, 9.25957635e-02,
          1.49201483e-01, 8.68612435e-03, 1.04399696e-01, 8.49951953e-02,
          1.12527773e-01, 1.47329614e-01, 1.22225873e-01, 1.57511637e-01,
          1.90461874e-01, 1.81504145e-01, 1.72967482e-02, 9.94486548e-03,
          5.44506721e-02, 1.07648373e-01, 1.41376136e-02, 1.27141193e-01,
          1.21625416e-01, 1.12479486e-01, 0., 1.34478370e-02,
          3.98151837e-02, 1.76329374e-01, 1.35694712e-01, 1.65580943e-01,
          1.65998206e-01, 1.22736476e-01, 4.34340350e-02, 1.04563564e-01,
          1.06321119e-01, 5.21799400e-02, 1.14513502e-01, 2.15472877e-01,
          2.86121637e-01, 1.27702206e-01, 5.28628118e-02, 1.31095588e-01,
          9.13950950e-02, 4.98571135e-02, 9.72466022e-02, 9.00973976e-02,
          1.99272409e-01, 6.99620172e-02, 0., 0., 3.57505046e-02,
          7.92393312e-02, 6.22236403e-03, 1.58363193e-01, 2.88675368e-01,
          1.77679822e-01, 1.52714431e-01, 5.44896424e-02, 5.65397292e-02,
          5.89721389e-02, 1.58937946e-01, 9.94016454e-02 ]
      - [ 3.27992797e-01, 1.19964525e-01, 5.06344400e-02, 1.20130233e-01,
          7.29907602e-02, 0., 1.14276357e-01, 1.73053458e-01,
          1.10457197e-01, 7.47012347e-02, 8.12049657e-02, 4.82815653e-02,
          1.61635932e-02, 2.10979357e-02, 8.38692784e-02, 2.29129106e-01,
          2.15010867e-01, 1.22893080e-01, 1.53077701e-02, 1.04956003e-02,
          1.77859664e-02, 7.88260549e-02, 1.13746703e-01, 6.43445626e-02,
          1.79361746e-01, 1.25293240e-01, 1.02223396e-01, 0.,
          8.82543996e-02, 9.30038989e-02, 1.92075968e-01, 2.30901033e-01,
          1.43370986e-01, 9.12488624e-02, 5.42953312e-02, 4.67135906e-02,
          8.55655000e-02, 6.96486309e-02, 7.93986022e-02, 2.17237383e-01,
          3.18864733e-01, 8.43679532e-02, 6.24072133e-03, 3.71409059e-02,
          6.89533576e-02, 6.34642690e-02, 5.89028858e-02, 1.01911709e-01,
          1.75246313e-01, 5.45892678e-02, 0., 0., 7.91447461e-02, 0.,
          8.59627780e-03, 1.08938262e-01, 3.11948806e-01, 1.44647717e-01,
          1.40147835e-01, 1.11155070e-01, 8.10422972e-02, 7.72854611e-02,
          1.18175425e-01, 1.19739965e-01 ]
      - [ 2.96497852e-01, 1.75076842e-01, 1.06279820e-01, 1.19601384e-01,
          7.78017417e-02, 1.02339163e-01, 7.43650794e-02, 1.37211278e-01,
          1.77527979e-01, 3.93981375e-02, 0., 5.15179597e-02,
          1.04845138e-02, 6.57017231e-02, 7.94737488e-02, 1.92305982e-01,
          1.42319560e-01, 1.78784832e-01, 5.27359135e-02, 6.96662953e-03,
          8.38512369e-03, 9.10715610e-02, 1.04770288e-01, 9.93962884e-02,
          1.62582740e-01, 1.43885583e-01, 5.54278307e-02, 8.04504901e-02,
          1.27244452e-02, 2.00832531e-01, 1.67656437e-01, 2.20820412e-01,
          1.37354165e-01, 0., 1.45408571e-01, 8.98057148e-02,
          9.76266041e-02, 1.40791535e-01, 1.18715823e-01, 1.17463477e-01,
          2.89354831e-01, 1.34069368e-01, 9.15756971e-02, 9.40265059e-02,
          6.59671649e-02, 8.42153504e-02, 0., 8.93431976e-02,
          1.35083258e-01, 7.34632909e-02, 0., 3.58168706e-02,
          7.64247030e-02, 0., 5.97322732e-02, 7.09438026e-02,
          3.26002568e-01, 1.30783945e-01, 1.20816819e-01, 6.41737431e-02,
          0., 8.47860575e-02, 8.81535038e-02, 1.81911647e-01 ]
      - [ 3.35660815e-01, 8.83028582e-02, 8.04002434e-02, 1.05260096e-01,
          5.92032336e-02, 8.98208246e-02, 8.79761279e-02, 1.55192763e-01,
          1.47653535e-01, 7.56514519e-02, 8.07346478e-02, 2.76778992e-02,
          1.10286493e-02, 7.60885514e-03, 1.26261219e-01, 2.08794236e-01,
          1.31388888e-01, 1.82574064e-01, 2.39670593e-02, 4.90300497e-03,
          8.71891249e-03, 3.26273441e-02, 5.67911239e-03, 1.64869592e-01,
          1.62656873e-01, 1.16312549e-01, 7.97398612e-02, 1.19118318e-01,
          5.81668988e-02, 1.39584288e-01, 2.24613309e-01, 1.55884460e-01,
          1.12516426e-01, 1.03005640e-01, 5.96238524e-02, 1.16300926e-01,
          6.04122989e-02, 6.38188645e-02, 4.63697547e-03, 2.24453315e-01,
          3.20935160e-01, 5.64321019e-02, 6.51788116e-02, 4.99920174e-02,
          1.01076014e-01, 5.50623611e-02, 8.28494206e-02, 9.61903483e-02,
          1.67839572e-01, 1.02951914e-01, 4.59183492e-02, 7.28354752e-02,
          0., 6.49578646e-02, 9.98458564e-02, 1.16562612e-01,
          2.15787783e-01, 2.32491404e-01, 1.45744547e-01, 0.,
          7.39577040e-02, 1.52284935e-01, 7.05102459e-02, 1.27071694e-01 ]
      - [ 2.59687454e-01, 1.48177236e-01, 1.57155141e-01, 2.23455533e-01,
          1.45822987e-01, 8.09773710e-03, 1.46318534e-02, 1.10051692e-01,
          1.06364101e-01, 1.11414298e-01, 1.01300560e-01, 6.80935802e-03,
          1.64125994e-01, 1.26458645e-01, 1.74697101e-01, 7.82034546e-02,
          2.46292561e-01, 8.92403796e-02, 1.40415300e-02, 6.80935802e-03,
          4.78712209e-02, 1.42682001e-01, 9.10738390e-03, 1.02845468e-01,
          7.26271793e-02, 1.30539238e-01, 9.31628942e-02, 7.97873512e-02,
          1.28600106e-01, 2.29696691e-01, 1.72211796e-01, 2.26038903e-01,
          6.80690557e-02, 1.15263641e-01, 8.85493830e-02, 6.29371554e-02,
          8.55235085e-02, 9.69449803e-02, 1.10562660e-01, 2.30913386e-01,
          2.66657978e-01, 1.35612190e-01, 5.08164316e-02, 1.00358069e-01,
          7.65836658e-03, 1.03731878e-01, 6.43989304e-03, 1.48447722e-01,
          2.58409437e-02, 0., 1.58828739e-02, 6.80935802e-03,
          8.64668190e-03, 8.09773710e-03, 1.36610763e-02, 1.80158671e-02,
          3.14004391e-01, 1.53357163e-01, 1.16949014e-01, 1.11185953e-01,
          2.74980925e-02, 0., 1.31033314e-02, 3.74851339e-02 ]
      - [ 2.66131043e-01, 7.36146122e-02, 8.79958123e-02, 8.29197541e-02,
          9.52770337e-02, 9.68860835e-02, 0., 0., 4.40586433e-02,
          6.71851933e-02, 6.63194209e-02, 1.61604002e-01, 1.91292629e-01,
          1.79738253e-01, 7.29448572e-02, 1.64014459e-01, 2.23319665e-01,
          1.29519820e-01, 1.07332028e-01, 1.24688782e-01, 1.59865916e-01,
          9.03707147e-02, 9.97829512e-02, 4.84807566e-02, 1.31151512e-01,
          6.56624883e-02, 1.32259563e-01, 8.21848214e-02, 1.56807587e-01,
          1.31850243e-01, 1.21031068e-01, 1.69841155e-01, 1.55765355e-01,
          1.26228854e-01, 5.45608327e-02, 0., 4.66465130e-02,
          6.13418296e-02, 5.39904013e-02, 1.97339669e-01, 3.63272846e-01,
          6.28446490e-02, 4.52139452e-02, 0., 1.02123944e-02,
          7.01914802e-02, 9.75114331e-02, 1.17772020e-01, 1.80781096e-01,
          1.00497432e-01, 5.19259982e-02, 0., 1.09673301e-02,
          3.31706852e-02, 9.87327546e-02, 1.12099163e-01, 2.70548105e-01,
          1.84464276e-01, 1.48749366e-01, 6.23084977e-02, 6.19090721e-02,
          6.06331117e-02, 1.10467583e-01, 4.80783544e-02 ]
      - [ 2.80596524e-01, 1.00155234e-01, 1.25008389e-01, 2.55838614e-02,
          3.40291038e-02, 9.20550525e-02, 1.04463086e-01, 3.46658304e-02,
          3.86006385e-02, 7.78511837e-02, 1.09302938e-01, 1.09583840e-01,
          1.92258969e-01, 1.52526826e-01, 8.99372250e-02, 1.84245408e-01,
          1.94885507e-01, 1.45963520e-01, 1.32994875e-01, 1.17254527e-02,
          1.84859782e-01, 1.37181893e-01, 4.63225655e-02, 5.75623363e-02,
          7.63451979e-02, 8.79890993e-02, 1.40990138e-01, 1.45090103e-01,
          1.65863335e-01, 1.11714527e-01, 1.17688976e-01, 1.64954960e-01,
          1.51062131e-01, 4.27875444e-02, 0., 0., 0., 0., 8.72284453e-03,
          2.06821188e-01, 3.69060755e-01, 7.50302747e-02, 0., 0.,
          3.51030380e-02, 8.04129243e-03, 8.82461593e-02, 1.53073117e-01,
          1.14726789e-01, 9.55600441e-02, 0., 0., 0., 9.58456248e-02,
          1.14463016e-01, 1.67037606e-01, 2.15454102e-01, 1.26267165e-01,
          1.76208615e-01, 1.38211966e-01, 0., 7.44444504e-02,
          9.49002802e-02, 1.64081603e-01 ]
      - [ 2.56752521e-01, 1.16858110e-01, 1.58156157e-01, 1.22825369e-01,
          1.55436978e-01, 4.92160842e-02, 6.14657998e-03, 1.05682582e-01,
          8.66935179e-02, 6.67015240e-02, 8.35858658e-02, 1.23199984e-01,
          1.40382141e-01, 1.13777623e-01, 1.99381948e-01, 1.17908873e-01,
          1.54874817e-01, 1.72953442e-01, 8.01338907e-03, 5.30658849e-03,
          1.15955081e-02, 0., 9.40633416e-02, 9.91855338e-02,
          7.46455267e-02, 8.31159055e-02, 1.56535476e-01, 0.,
          9.34549868e-02, 1.69516191e-01, 1.90613583e-01, 8.99836868e-02,
          8.93168673e-02, 1.08828016e-01, 8.89782235e-02, 1.03868201e-01,
          5.55362217e-02, 4.85614203e-02, 4.33923863e-02, 2.53565699e-01,
          3.16348821e-01, 9.95430052e-02, 0., 7.44696483e-02,
          1.62893265e-01, 0., 1.04428045e-01, 1.22406736e-01,
          1.44229040e-01, 9.88494530e-02, 0., 5.28106578e-02, 0.,
          7.59017020e-02, 0., 1.21199936e-01, 2.66772240e-01,
          1.56217411e-01, 2.02349842e-01, 6.40229136e-02, 8.81932974e-02,
          7.75745660e-02, 1.69910073e-01, 1.23307124e-01 ]
      - [ 2.98872918e-01, 1.19788364e-01, 6.68178126e-02, 1.60102695e-01,
          1.01637855e-01, 1.16179008e-02, 9.36617330e-03, 7.48635922e-03,
          1.26296673e-02, 8.75989720e-03, 0., 7.96670467e-02,
          1.51602075e-01, 5.99433631e-02, 1.65483221e-01, 1.68005809e-01,
          2.70815551e-01, 1.59809381e-01, 1.21826127e-01, 7.48635922e-03,
          9.73289832e-02, 7.12622851e-02, 6.13159919e-03, 0.,
          1.25413626e-01, 5.33672832e-02, 7.31538907e-02, 1.49413943e-01,
          1.23322727e-02, 1.90697908e-01, 1.37117729e-01, 1.88293323e-01,
          8.40919465e-02, 7.03573823e-02, 8.15860555e-02, 8.18782970e-02,
          1.07739521e-02, 0., 5.88515960e-02, 4.03192997e-01,
          1.34321198e-01, 6.13159919e-03, 0., 8.30463096e-02,
          8.96914452e-02, 5.88265136e-02, 3.73709202e-02, 8.56091082e-02,
          1.05834968e-01, 7.30031207e-02, 5.12056910e-02, 9.25845727e-02,
          4.60950099e-02, 0., 3.79631370e-02, 1.34409487e-01,
          3.43478650e-01, 1.86121687e-01, 1.66263729e-01, 8.95795971e-03,
          1.01474606e-01, 1.06633067e-01, 8.68387073e-02, 7.62581825e-02 ]
      - [ 3.00516427e-01, 1.68145284e-01, 9.99335945e-02, 1.58049881e-01,
          1.70914400e-02, 4.48827222e-02, 5.03759133e-03, 6.76384708e-03,
          4.30022255e-02, 0., 4.21652421e-02, 1.19720712e-01,
          4.87907678e-02, 8.81093815e-02, 1.65744171e-01, 1.40665531e-01,
          2.18249291e-01, 2.03841239e-01, 4.34767641e-02, 6.76384708e-03,
          1.41327176e-02, 7.94303343e-02, 4.58146259e-02, 5.78503013e-02,
          1.26351193e-01, 7.78255612e-02, 1.20651200e-01, 7.76415691e-02,
          9.15033296e-02, 1.67194486e-01, 1.35717154e-01, 2.40567431e-01,
          6.26177043e-02, 2.87476815e-02, 4.30417061e-02, 1.13257013e-01,
          7.53295608e-03, 0., 6.16976386e-03, 4.06865269e-01,
          1.35488749e-01, 6.16976433e-03, 8.78533628e-03, 4.06611413e-02,
          8.72925147e-02, 6.95203394e-02, 4.75232787e-02, 8.62020999e-02,
          1.02712743e-01, 6.69923723e-02, 9.10808071e-02, 4.50122878e-02,
          9.83878523e-02, 1.72816571e-02, 3.42319123e-02, 2.68336087e-01,
          1.89060554e-01, 2.77932674e-01, 9.57861990e-02, 1.06270336e-01,
          1.07309304e-01, 1.03275232e-01, 1.17920890e-01, 7.08657652e-02 ]
      - [ 2.51789480e-01, 1.11484461e-01, 8.19714814e-02, 1.52923331e-01,
          1.34787574e-01, 0., 3.35879922e-02, 1.19040772e-01,
          1.39273837e-01, 1.26157075e-01, 7.82846734e-02, 1.01332143e-01,
          8.27120095e-02, 1.23750001e-01, 1.29333869e-01, 1.75472349e-01,
          2.15436429e-01, 1.14057101e-01, 9.78576690e-02, 9.55153331e-02,
          6.80014566e-02, 1.31014988e-01, 1.00044139e-01, 9.32502896e-02,
          1.29206657e-01, 1.23686850e-01, 1.11869879e-01, 1.42353773e-01,
          9.60606560e-02, 8.73226896e-02, 1.68959603e-01, 1.39814481e-01,
          1.24398611e-01, 1.34039164e-01, 0., 4.31373008e-02,
          7.41564110e-02, 6.31379932e-02, 8.86829048e-02, 2.41122738e-01,
          2.30131581e-01, 1.24319352e-01, 8.86843875e-02, 1.10470571e-01,
          8.33595321e-02, 0., 1.47907630e-01, 1.12532742e-01,
          2.47977868e-01, 0., 8.09119642e-02, 6.89542592e-02,
          7.70572573e-02, 0., 0., 5.93236610e-02, 3.13866228e-01,
          1.53802216e-01, 1.50613546e-01, 0., 0., 3.36250104e-02, 0.,
          1.47930726e-01 ]
      - [ 2.23653346e-01, 9.75539014e-02, 1.39234796e-01, 1.32231608e-01,
          1.18685886e-01, 6.88675568e-02, 8.85580778e-02, 7.22607970e-02,
          1.61252260e-01, 1.18035980e-01, 1.21978812e-01, 1.06428050e-01,
          9.66316685e-02, 9.95693579e-02, 1.34411752e-01, 1.46927908e-01,
          2.02732250e-01, 1.29182473e-01, 7.70932436e-02, 1.42428249e-01,
          1.08520076e-01, 9.19155031e-02, 1.39881179e-01, 4.77162749e-02,
          1.19963355e-01, 1.16256207e-01, 6.47550449e-02, 1.58813238e-01,
          1.38442501e-01, 1.48649171e-01, 1.01087973e-01, 1.44444764e-01,
          1.84523016e-01, 6.29216954e-02, 1.40854418e-01, 9.62737352e-02,
          5.24445735e-02, 3.42201702e-02, 7.43447766e-02, 1.66911304e-01,
          3.00444841e-01, 8.95891190e-02, 4.31535468e-02, 1.28694624e-01,
          1.16250068e-01, 6.77539334e-02, 0., 1.63801670e-01,
          2.13024706e-01, 5.14122620e-02, 4.67966795e-02, 6.35971725e-02,
          5.56457862e-02, 9.79973823e-02, 3.33564505e-02, 1.60790637e-01,
          2.30566204e-01, 1.71211779e-01, 1.42912224e-01, 5.18560708e-02,
          4.43563052e-02, 6.42132834e-02, 7.97773525e-02, 1.13371395e-01 ]
      - [ 2.64322907e-01, 6.72581717e-02, 9.38592479e-02, 1.10007457e-01,
          5.41341603e-02, 6.64919019e-02, 1.10918149e-01, 0.,
          1.16931312e-01, 1.18395023e-01, 3.85426208e-02, 8.37272406e-02,
          6.36091754e-02, 5.69206551e-02, 7.23552033e-02, 2.68048197e-01,
          1.83096647e-01, 1.15783617e-01, 5.34530310e-03, 7.25841941e-03,
          6.11881316e-02, 7.87684172e-02, 4.93168756e-02, 0.,
          1.43671796e-01, 1.05057202e-01, 5.34530310e-03, 7.43863732e-02,
          1.41997084e-01, 1.23186283e-01, 1.26640335e-01, 2.22419262e-01,
          2.08837777e-01, 7.54009709e-02, 6.90715164e-02, 8.23686123e-02,
          6.46709353e-02, 0., 5.76274917e-02, 2.09283054e-01,
          3.71101677e-01, 1.48620307e-01, 5.34530310e-03, 0.,
          5.97407408e-02, 5.62504753e-02, 0., 1.75276473e-01,
          1.54382423e-01, 4.24949378e-02, 6.98595271e-02, 2.76445523e-02,
          7.99309183e-03, 0., 1.08618781e-01, 2.16573149e-01,
          2.66870886e-01, 1.53008640e-01, 6.61747977e-02, 1.10504806e-01,
          8.86690468e-02, 7.95086548e-02, 7.16975480e-02, 1.92266837e-01 ]
      - [ 2.29427874e-01, 1.12732679e-01, 0., 7.98535720e-02,
          1.64954409e-01, 1.00933507e-01, 1.28059208e-01, 1.03323400e-01,
          1.90934062e-01, 5.64388633e-02, 1.18804395e-01, 0.,
          8.19655508e-02, 0., 1.50218993e-01, 2.25986332e-01,
          1.56034842e-01, 1.45447418e-01, 2.40452718e-02, 0.,
          1.11504626e-02, 2.90750228e-02, 8.39203000e-02, 1.15334205e-01,
          1.62588388e-01, 9.57910940e-02, 9.24783871e-02, 6.15903251e-02,
          1.88492551e-01, 1.38422519e-01, 1.39583424e-01, 8.40208828e-02,
          1.47734374e-01, 8.74651000e-02, 9.81666297e-02, 6.44517094e-02,
          1.19142734e-01, 1.54954642e-01, 8.45717862e-02, 1.52066082e-01,
          2.80134290e-01, 8.83993283e-02, 1.26317114e-01, 1.16914995e-01,
          1.73857272e-01, 1.47576839e-01, 5.13573289e-02, 1.77431509e-01,
          1.95030123e-01, 7.91823342e-02, 2.79981140e-02, 6.47399500e-02,
          1.01981342e-01, 6.79737031e-02, 1.06121995e-01, 9.22314227e-02,
          2.17906967e-01, 1.09848656e-01, 1.39954954e-01, 1.28879324e-01,
          1.16015196e-01, 7.03482404e-02, 1.21670604e-01, 7.93256685e-02 ]
      - [ 2.47832090e-01, 1.13432467e-01, 9.44621637e-02, 1.12022907e-01,
          1.68408141e-01, 1.21344872e-01, 1.79833665e-01, 3.73777859e-02,
          1.98257759e-01, 3.26122940e-02, 0., 6.29343092e-02,
          6.83408007e-02, 1.24738745e-01, 1.74409300e-01, 1.53737053e-01,
          1.35974169e-01, 1.45353392e-01, 6.60497975e-03, 4.37391829e-03,
          8.21763929e-03, 4.20018882e-02, 1.28792629e-01, 9.89240482e-02,
          1.46440879e-01, 1.69271916e-01, 9.27643701e-02, 9.16901752e-02,
          1.09465331e-01, 1.80971473e-01, 1.53753132e-01, 1.10226542e-01,
          1.61752462e-01, 5.64013198e-02, 8.06774274e-02, 1.22773521e-01,
          1.18960865e-01, 7.65661150e-02, 1.04434080e-01, 6.38710484e-02,
          2.97905743e-01, 1.36320785e-01, 6.68391213e-02, 1.08504437e-01,
          1.23505786e-01, 1.12477973e-01, 1.19262822e-01, 1.32263064e-01,
          2.24006921e-01, 6.20005541e-02, 9.71061438e-02, 8.70000273e-02,
          6.87191412e-02, 7.45019689e-02, 1.20362893e-01, 9.57659036e-02,
          1.65498137e-01, 1.18530303e-01, 1.98259860e-01, 9.16164741e-02,
          4.86185476e-02, 7.63457417e-02, 1.27638668e-01, 7.47435242e-02 ]
      - [ 2.67653883e-01, 1.62278652e-01, 9.15636197e-02, 7.66092166e-02,
          9.20698121e-02, 7.02098757e-02, 6.43710196e-02, 7.59600028e-02,
          1.37227669e-01, 5.43968379e-02, 7.80469701e-02, 8.26863721e-02,
          6.77838326e-02, 1.04749590e-01, 1.32037655e-01, 1.15819551e-01,
          1.84438527e-01, 1.41298831e-01, 1.26166523e-01, 6.66656569e-02,
          6.70587420e-02, 4.38955240e-02, 3.68377157e-02, 1.99840236e-02,
          7.53206983e-02, 6.16169609e-02, 5.03863301e-03, 4.23696870e-03,
          1.40667617e-01, 9.10552144e-02, 1.78697422e-01, 1.29844755e-01,
          1.92471415e-01, 9.27816853e-02, 1.12056457e-01, 1.05964772e-01,
          1.19670875e-01, 9.36161056e-02, 1.25125572e-01, 1.26483470e-01,
          2.69377500e-01, 1.39515445e-01, 7.64388666e-02, 1.03669435e-01,
          1.41915143e-01, 8.36120844e-02, 9.60292518e-02, 9.93236229e-02,
          2.29148045e-01, 6.92451894e-02, 0., 5.27767055e-02,
          4.51240726e-02, 4.59639840e-02, 1.31423458e-01, 6.89545274e-02,
          3.54296893e-01, 1.95163533e-01, 1.72401652e-01, 9.80253220e-02,
          6.76560774e-02, 4.38468605e-02, 7.70058781e-02, 1.83724105e-01 ]
      - [ 3.46705794e-01, 1.08780921e-01, 1.20163783e-02, 6.75622299e-02,
          9.40504298e-02, 5.64431846e-02, 6.10023253e-02, 6.89167455e-02,
          1.30929351e-01, 4.50657457e-02, 5.93012832e-02, 5.25100995e-03,
          1.51139237e-02, 0., 7.07809478e-02, 2.49429896e-01,
          1.70634180e-01, 1.48218989e-01, 7.11204410e-02, 5.25100995e-03,
          1.84536930e-02, 1.18686501e-02, 1.05924793e-02, 8.48724879e-03,
          1.31262839e-01, 9.93952826e-02, 1.37931913e-01, 0.,
          1.51503738e-02, 1.90285683e-01, 2.02527642e-01, 1.93488941e-01,
          1.21939369e-01, 3.39354686e-02, 5.59053160e-02, 4.65597920e-02,
          8.91687796e-02, 8.02617818e-02, 3.13915573e-02, 2.20981136e-01,
          3.56810480e-01, 8.86805579e-02, 8.54658335e-02, 6.41562790e-02,
          7.33580515e-02, 5.23828231e-02, 6.36364371e-02, 5.49260713e-02,
          1.52729705e-01, 0., 4.13168818e-02, 5.09622060e-02, 0., 0., 0.,
          1.00097932e-01, 3.29310179e-01, 2.45046720e-01, 1.14469573e-01,
          9.10655782e-02, 1.06776908e-01, 1.13904350e-01, 8.44255984e-02,
          1.68394506e-01 ]
      - [ 2.14773655e-01, 1.70804381e-01, 1.03061371e-01, 1.75250053e-01,
          8.40817019e-02, 1.14800148e-01, 3.89843993e-02, 0.,
          1.38855115e-01, 7.39115104e-02, 1.08809628e-01, 1.31192729e-01,
          1.14098616e-01, 1.01517573e-01, 1.48673758e-01, 1.54581144e-01,
          2.02731967e-01, 7.56838322e-02, 1.57160491e-01, 5.10405600e-02,
          1.44723896e-02, 8.85136575e-02, 3.80313061e-02, 1.11242309e-01,
          1.86159074e-01, 1.25825986e-01, 7.08331242e-02, 9.49891657e-02,
          1.57268435e-01, 9.88135263e-02, 1.67744547e-01, 1.39443994e-01,
          1.83262393e-01, 9.09959748e-02, 7.14901239e-02, 0.,
          8.46788287e-02, 6.23122454e-02, 2.88587380e-02, 1.87921271e-01,
          2.99095392e-01, 1.26876831e-01, 5.33473380e-02, 1.26742423e-01,
          6.44634813e-02, 5.26089631e-02, 7.43883625e-02, 1.03003725e-01,
          2.16798276e-01, 1.88322868e-02, 3.47569846e-02, 0.,
          4.87352461e-02, 5.38479984e-02, 3.23743979e-03, 6.15481362e-02,
          2.94156104e-01, 1.99824646e-01, 1.34129956e-01, 0., 0.,
          9.18008462e-02, 8.78483951e-02, 1.89554900e-01 ]
      - [ 1.65304825e-01, 9.20529813e-02, 1.34881392e-01, 1.57304689e-01,
          2.02435255e-01, 4.94321808e-02, 7.53675634e-03, 0.,
          1.33610919e-01, 8.53024647e-02, 8.80919695e-02, 1.37101844e-01,
          1.36412382e-01, 1.18628271e-01, 1.33776784e-01, 1.10316016e-01,
          1.99280530e-01, 9.82735902e-02, 1.20143436e-01, 1.19938189e-02,
          1.04521163e-01, 0., 7.21962973e-02, 7.44590238e-02,
          1.11189611e-01, 9.05124694e-02, 5.42044565e-02, 4.98811342e-02,
          1.33015364e-01, 1.60259128e-01, 1.44645989e-01, 1.43175274e-01,
          1.70924708e-01, 1.43105388e-01, 1.29406229e-01, 0.,
          1.22575872e-01, 7.71751180e-02, 1.11454815e-01, 2.32772350e-01,
          2.15371877e-01, 1.33905411e-01, 9.63649675e-02, 1.21071868e-01,
          7.67417699e-02, 1.23745240e-01, 1.03686661e-01, 1.14762522e-01,
          2.05232218e-01, 1.11380927e-01, 4.89688367e-02, 6.86819246e-03,
          6.68048933e-02, 8.54045972e-02, 1.08482838e-01, 1.77992180e-01,
          2.81899065e-01, 1.73639670e-01, 1.20114550e-01, 9.44195688e-02,
          3.35382819e-02, 1.04927599e-01, 8.60147700e-02, 1.21897571e-01 ]
      - [ 2.40990520e-01, 3.35528776e-02, 4.17357497e-02, 1.53978556e-01,
          1.99985608e-01, 5.44606261e-02, 6.34734854e-02, 5.96838854e-02,
          1.11420132e-01, 9.40362960e-02, 9.15682763e-02, 1.20926850e-01,
          1.42129824e-01, 9.95124429e-02, 9.42665190e-02, 9.40296277e-02,
          2.53293544e-01, 6.12214245e-02, 9.29520503e-02, 9.30020809e-02,
          1.06397256e-01, 8.06622133e-02, 1.61270559e-01, 1.62252709e-01,
          1.93477482e-01, 9.35475677e-02, 8.24795142e-02, 5.70098832e-02,
          8.70538875e-02, 1.38170615e-01, 1.30498543e-01, 1.00289032e-01,
          1.72686145e-01, 7.23477677e-02, 6.79346621e-02, 1.41636044e-01,
          1.26872420e-01, 1.11172475e-01, 8.89438912e-02, 1.30359024e-01,
          2.85692006e-01, 2.54567973e-02, 4.32010181e-02, 1.21458568e-01,
          1.14703879e-01, 1.47685744e-02, 1.87807344e-02, 8.57884660e-02,
          2.82219678e-01, 3.44414711e-02, 0., 0., 6.98168902e-03,
          5.47355646e-03, 0., 1.36803344e-01, 3.51791531e-01,
          1.42071411e-01, 0., 3.17577422e-02, 9.06692166e-03,
          7.86806047e-02, 6.35879412e-02, 1.39240801e-01 ]
      - [ 1.93727463e-01, 2.03160763e-01, 1.11244179e-01, 9.41059738e-02,
          1.59724385e-01, 1.02784023e-01, 1.11169264e-01, 2.80712135e-02,
          6.45672008e-02, 2.28420123e-02, 1.27234086e-01, 8.40494931e-02,
          1.28678739e-01, 9.34663564e-02, 1.14151761e-01, 1.60302222e-01,
          1.64839685e-01, 1.68080181e-01, 5.24426736e-02, 7.09492015e-03,
          1.45962328e-01, 2.27249544e-02, 4.74465918e-03, 1.20218419e-01,
          8.82481188e-02, 7.33767450e-02, 1.61264226e-01, 1.25845924e-01,
          1.28359959e-01, 1.95420846e-01, 1.57884523e-01, 2.40270734e-01,
          1.79202095e-01, 0., 7.45047182e-02, 3.96971703e-02,
          5.01686614e-03, 4.64380831e-02, 1.27364591e-01, 1.92702726e-01,
          1.75623283e-01, 2.19900668e-01, 1.53856650e-01, 0.,
          7.67545030e-02, 9.50463563e-02, 7.04560429e-02, 4.18851711e-02,
          1.69631124e-01, 8.93115029e-02, 0., 5.54168187e-02,
          7.58201703e-02, 3.87133770e-02, 1.71470329e-01, 1.98489591e-01,
          2.37458527e-01, 1.44430354e-01, 1.96917802e-01, 4.35301289e-02,
          4.29719016e-02, 5.66169620e-02, 8.90809521e-02, 7.64769763e-02 ]
      - [ 2.57188171e-01, 1.55567080e-01, 9.13584307e-02, 7.33474195e-02,
          8.80408511e-02, 5.31413294e-02, 6.86975271e-02, 1.03471205e-01,
          1.69569656e-01, 1.14777163e-01, 7.93826655e-02, 1.32310480e-01,
          1.27288103e-01, 8.69762748e-02, 1.03925779e-01, 1.47509515e-01,
          1.54852957e-01, 1.01406783e-01, 1.15082629e-01, 1.20321803e-01,
          1.69923976e-01, 6.36403635e-02, 5.88185526e-02, 1.06187701e-01,
          1.73512787e-01, 1.63414225e-01, 1.13579959e-01, 7.86628351e-02,
          1.11701801e-01, 1.02586031e-01, 1.06176808e-01, 1.57844901e-01,
          1.80652171e-01, 7.47659951e-02, 3.91264781e-02, 1.12113178e-01,
          1.25591770e-01, 7.59660304e-02, 7.49240965e-02, 1.63831338e-01,
          2.32070059e-01, 1.88095495e-01, 5.88211492e-02, 1.00761563e-01,
          9.42050517e-02, 8.76103565e-02, 5.17683886e-02, 1.27761558e-01,
          2.93977618e-01, 1.50830805e-01, 0., 7.02737793e-02,
          7.12598637e-02, 6.15331642e-02, 7.16085806e-02, 1.53480932e-01,
          1.89355567e-01, 1.42950639e-01, 1.13126457e-01, 1.00743286e-01,
          1.07453145e-01, 5.63791692e-02, 0., 1.13062777e-01 ]
      - [ 2.44320109e-01, 1.22788727e-01, 8.09853524e-02, 1.64295375e-01,
          1.86564431e-01, 6.69459999e-02, 6.16253205e-02, 9.91732534e-03,
          1.24485761e-01, 6.96452707e-02, 1.15027189e-01, 9.83809829e-02,
          1.09488092e-01, 1.03880033e-01, 1.07658543e-01, 1.85736269e-01,
          1.60395563e-01, 1.34331435e-01, 1.77904908e-02, 1.12326127e-02,
          1.94059145e-02, 1.10178337e-01, 1.31028173e-02, 7.95942470e-02,
          1.53724328e-01, 8.58066827e-02, 1.12110920e-01, 9.25460923e-03,
          9.34907049e-02, 1.38108462e-01, 2.21637174e-01, 1.86440080e-01,
          1.60417080e-01, 4.20857444e-02, 1.41623795e-01, 7.27071753e-03,
          0., 7.30642974e-02, 9.98921096e-02, 2.16925889e-01,
          3.06491017e-01, 6.26702681e-02, 1.28304631e-01, 1.14860430e-01,
          0., 0., 1.38657361e-01, 1.33355528e-01, 1.89135730e-01, 0., 0.,
          5.31863421e-02, 5.90717606e-02, 0., 7.53390491e-02,
          9.60686058e-02, 3.17206591e-01, 1.66932225e-01, 1.16545312e-01,
          7.27071753e-03, 0., 1.32411525e-01, 1.32254437e-01,
          9.55409706e-02 ]
      - [ 2.99318939e-01, 2.08743438e-01, 6.73640370e-02, 1.04846768e-01,
          7.93446451e-02, 0., 7.00948015e-02, 6.43290877e-02,
          1.60993934e-01, 8.40973780e-02, 5.24374470e-02, 5.43161407e-02,
          6.35926723e-02, 0., 1.54695228e-01, 1.48627222e-01,
          1.02820471e-01, 1.86705619e-01, 1.06746048e-01, 0.,
          7.09859058e-02, 4.47292216e-02, 8.19905847e-02, 5.78368828e-02,
          7.86280856e-02, 1.22886926e-01, 1.34685040e-01, 1.19421445e-01,
          8.86804760e-02, 1.96451217e-01, 1.96459308e-01, 1.54917151e-01,
          1.23622000e-01, 1.38274625e-01, 8.02522749e-02, 9.35868323e-02,
          8.01147893e-02, 1.04430333e-01, 9.58454907e-02, 1.50237143e-01,
          3.58475626e-01, 7.71749020e-02, 4.76783440e-02, 1.04035161e-01,
          6.38664588e-02, 8.79336745e-02, 6.06302992e-02, 5.91823310e-02,
          1.08763486e-01, 5.24105392e-02, 6.27298355e-02, 5.57008572e-02,
          8.04018825e-02, 0., 5.67743070e-02, 1.96925864e-01,
          2.26214975e-01, 1.21805906e-01, 1.88551143e-01, 1.32688537e-01,
          1.33343503e-01, 1.42407075e-01, 1.18444279e-01, 6.29345104e-02 ]
      - [ 1.66841701e-01, 1.36143118e-01, 1.13586880e-01, 1.50466010e-01,
          1.59766853e-01, 0., 1.24717560e-02, 1.09887673e-02,
          5.22685014e-02, 3.93699557e-02, 0., 1.75937369e-01,
          1.21683531e-01, 1.16506197e-01, 1.80081293e-01, 2.11879238e-01,
          1.79337963e-01, 1.95846125e-01, 1.18013740e-01, 1.72721162e-01,
          1.63827047e-01, 0., 6.84337830e-03, 1.70534346e-02,
          1.16676889e-01, 3.46871801e-02, 1.41736865e-01, 6.47850558e-02,
          3.77033390e-02, 1.46028504e-01, 2.04798833e-01, 1.22084752e-01,
          1.19292744e-01, 4.53942157e-02, 6.94788760e-03, 1.47385359e-01,
          1.23570234e-01, 9.42877755e-02, 1.82695657e-01, 2.21594721e-01,
          2.25803316e-01, 1.72972217e-01, 3.16361710e-02, 0.,
          6.34574965e-02, 9.85691473e-02, 7.19134212e-02, 8.57622772e-02,
          4.58563976e-02, 8.67121145e-02, 1.21434733e-01, 7.50645176e-02,
          9.58573446e-03, 0., 1.20924272e-01, 1.96640939e-01,
          8.77279937e-02, 2.66373694e-01, 1.97781950e-01, 3.78451087e-02,
          1.72006115e-01, 0., 3.64057422e-02, 6.94058910e-02 ]
      - [ 2.47357056e-01, 2.02369004e-01, 1.73988476e-01, 1.70307785e-01,
          9.82304886e-02, 7.42396042e-02, 3.20254490e-02, 0.,
          7.23138228e-02, 7.17206076e-02, 6.42421916e-02, 9.39091817e-02,
          5.64216636e-02, 9.08366069e-02, 1.20270811e-01, 2.35735983e-01,
          1.78382456e-01, 1.40316188e-01, 0., 6.89417049e-02,
          9.20707583e-02, 1.41281158e-01, 0., 0., 1.15970604e-01,
          1.40889809e-01, 1.14959694e-01, 1.22962251e-01, 1.40204296e-01,
          2.04747394e-01, 2.62044579e-01, 1.44454733e-01, 5.36689572e-02,
          2.02364605e-02, 3.85145433e-02, 1.15745272e-02, 1.29865957e-02,
          2.25460511e-02, 3.45253795e-02, 3.54335010e-01, 2.25779220e-01,
          1.98132917e-02, 1.48029355e-02, 5.25652478e-03, 9.34756920e-03,
          2.75397785e-02, 4.59181741e-02, 1.31022399e-02, 8.86854902e-02,
          7.15845600e-02, 7.08482042e-02, 0., 0., 0., 2.22462751e-02,
          2.96642929e-01, 2.28531137e-01, 1.52138382e-01, 0., 0.,
          1.02081284e-01, 1.20052397e-01, 1.24878630e-01, 1.03866324e-01 ]
      - [ 2.04701021e-01, 1.19663991e-01, 1.06871776e-01, 1.07239097e-01,
          1.68162286e-01, 1.17258795e-01, 9.16361362e-02, 4.72191395e-03,
          1.25002399e-01, 1.06815107e-01, 9.34723094e-02, 1.28278494e-01,
          1.82133079e-01, 9.66252461e-02, 1.66487977e-01, 1.60915032e-01,
          1.12655997e-01, 1.45756364e-01, 1.54232726e-01, 7.63206743e-03,
          9.61031206e-03, 1.22213379e-01, 1.22368798e-01, 1.00466333e-01,
          1.27949402e-01, 8.77022967e-02, 1.01769194e-01, 7.63206743e-03,
          6.30838126e-02, 1.89676389e-01, 1.61452249e-01, 1.64360151e-01,
          1.54341221e-01, 1.58151418e-01, 5.87192141e-02, 0.,
          5.55102266e-02, 8.71849358e-02, 1.02324858e-01, 1.91536427e-01,
          2.69358307e-01, 9.51489583e-02, 6.30504414e-02, 1.28995106e-01,
          1.09817930e-01, 9.63541940e-02, 5.77779934e-02, 1.23631418e-01,
          1.65847450e-01, 7.54696354e-02, 7.27161095e-02, 6.73682541e-02,
          1.48794642e-02, 5.34798168e-02, 3.94372530e-02, 7.27680773e-02,
          3.22635293e-01, 1.32191211e-01, 1.42642617e-01, 0., 0.,
          6.25997409e-02, 1.40892893e-01, 1.60351738e-01 ]
      - [ 1.77800879e-01, 1.09829664e-01, 1.28776968e-01, 1.41591921e-01,
          1.73810363e-01, 0., 7.45956898e-02, 0., 1.13600470e-01,
          7.99482390e-02, 1.20275408e-01, 1.11610472e-01, 1.61120847e-01,
          1.45521477e-01, 1.36112809e-01, 1.57450065e-01, 1.22253001e-01,
          1.70076981e-01, 1.30849987e-01, 0., 1.50331911e-02,
          1.14931792e-01, 4.77181673e-02, 1.00901134e-01, 1.56410694e-01,
          9.37944558e-03, 0., 5.17044961e-02, 1.01522915e-01,
          1.33371830e-01, 1.61271498e-01, 1.90088496e-01, 1.55979812e-01,
          1.11351669e-01, 1.28908783e-01, 9.10417140e-02, 4.75426018e-02,
          6.09184913e-02, 7.38089010e-02, 2.37983584e-01, 2.48810410e-01,
          1.44839242e-01, 1.05933286e-01, 7.92361200e-02, 1.30134493e-01,
          1.03043728e-01, 9.63648334e-02, 1.03516474e-01, 1.44490883e-01,
          1.39622629e-01, 0., 0., 0., 4.09467258e-02, 1.02665573e-01,
          9.68083590e-02, 3.18216532e-01, 1.60867885e-01, 1.43923044e-01,
          6.81671873e-02, 4.90626767e-02, 8.59081522e-02, 1.41215056e-01,
          1.45166829e-01 ]
      - [ 1.48305804e-01, 9.67382118e-02, 1.47063494e-01, 2.00484827e-01,
          1.77601099e-01, 4.40008566e-02, 0., 7.09284842e-02,
          9.46150348e-02, 4.55972888e-02, 5.48342653e-02, 1.61978245e-01,
          1.94702923e-01, 9.71250534e-02, 1.24696381e-01, 2.23391756e-01,
          1.87406674e-01, 1.38980091e-01, 5.47938310e-02, 7.15827569e-02,
          1.48905411e-01, 1.37774929e-01, 7.82388374e-02, 7.19647855e-02,
          1.17309518e-01, 1.54469341e-01, 2.60819383e-02, 1.39180854e-01,
          1.30311936e-01, 1.78523675e-01, 1.46769792e-01, 1.50930181e-01,
          1.08877942e-01, 9.27598681e-03, 0., 0., 7.31048882e-02,
          5.73955588e-02, 1.73926905e-01, 3.15209001e-01, 2.20189303e-01,
          6.11945540e-02, 0., 7.52253309e-02, 5.48171438e-03, 0.,
          1.15266301e-01, 2.49919787e-01, 1.16512626e-01, 5.82617298e-02,
          3.12274415e-02, 4.26998436e-02, 6.29037991e-02, 8.79453495e-03,
          9.93179828e-02, 1.81647629e-01, 1.97565049e-01, 8.58795866e-02,
          8.66909400e-02, 1.02291778e-01, 8.66022557e-02, 1.03518516e-01,
          5.65118007e-02, 1.14336237e-01 ]
      - [ 2.30087087e-01, 1.29761800e-01, 9.68554094e-02, 1.61889970e-01,
          1.47525936e-01, 1.31239504e-01, 5.73247634e-02, 8.99979249e-02,
          8.23742673e-02, 3.09298025e-03, 9.41266268e-02, 1.02621831e-01,
          1.02122188e-01, 1.07975744e-01, 9.10019204e-02, 1.39857024e-01,
          1.79756626e-01, 1.66713879e-01, 1.06703036e-01, 8.09481815e-02,
          4.55796979e-02, 1.10544100e-01, 7.54749179e-02, 6.53033182e-02,
          1.26285672e-01, 1.48756981e-01, 4.68507372e-02, 7.47556100e-03,
          1.47786945e-01, 1.57394111e-01, 1.89586878e-01, 1.64998680e-01,
          1.68435216e-01, 8.17404911e-02, 8.06294158e-02, 8.95786211e-02,
          1.10144362e-01, 9.81936753e-02, 8.48621354e-02, 1.99842930e-01,
          2.55195200e-01, 9.04548615e-02, 8.34086463e-02, 1.04002006e-01,
          9.46950763e-02, 7.28344470e-02, 3.09298025e-03, 1.20500669e-01,
          2.36496150e-01, 6.18596049e-03, 6.98426133e-03, 3.30023728e-02,
          6.81738481e-02, 9.11046639e-02, 1.05882347e-01, 1.67573258e-01,
          3.14795554e-01, 1.16193585e-01, 1.30080447e-01, 7.29316324e-02,
          3.36184241e-02, 8.15996453e-02, 1.02870680e-01, 1.21677198e-01 ]
      - [ 2.96023637e-01, 1.44563735e-01, 1.45403311e-01, 8.79900828e-02,
          1.91762969e-01, 5.26943542e-02, 8.26702490e-02, 8.47741663e-02,
          7.36470670e-02, 6.56435341e-02, 6.42472804e-02, 1.16643302e-01,
          4.85749692e-02, 1.06866844e-01, 1.81797341e-01, 1.48065805e-01,
          2.60293156e-01, 1.85867280e-01, 7.08915815e-02, 4.97136591e-03,
          6.65964335e-02, 4.79340740e-02, 4.51030843e-02, 5.65721355e-02,
          1.19849958e-01, 5.79363964e-02, 1.47876948e-01, 8.87826085e-02,
          1.48107126e-01, 1.61184326e-01, 1.57090351e-01, 1.51448131e-01,
          1.31866440e-01, 3.62121910e-02, 8.49933177e-02, 7.52243325e-02,
          8.65403786e-02, 0., 1.23479307e-01, 2.54362285e-01,
          2.23953933e-01, 1.77122027e-01, 9.99186113e-02, 3.91945802e-02,
          8.87317061e-02, 9.71770938e-03, 5.44299856e-02, 7.92420805e-02,
          1.25606075e-01, 6.64910488e-03, 3.94773707e-02, 6.26102909e-02,
          6.84780441e-03, 2.18668599e-02, 3.07507645e-02, 2.06870809e-01,
          2.80863911e-01, 1.50767595e-01, 1.66808173e-01, 9.17466450e-03,
          3.07109226e-02, 9.77241322e-02, 1.20481081e-01, 3.32065299e-02 ]
      - [ 1.26095027e-01, 1.74859017e-01, 1.42997727e-01, 1.16693504e-01,
          6.38698041e-02, 1.16283752e-01, 4.74552112e-03, 5.01777744e-03,
          8.07232484e-02, 6.71118032e-03, 5.87956943e-02, 1.16913922e-01,
          1.37104794e-01, 7.03207105e-02, 8.03823471e-02, 1.07755303e-01,
          2.06088662e-01, 1.15284301e-01, 8.79698172e-02, 8.01912993e-02,
          1.85745209e-02, 1.30197972e-01, 7.50332745e-03, 1.02432922e-01,
          7.71002918e-02, 5.43317795e-02, 7.59457797e-02, 9.40879881e-02,
          1.35615142e-02, 2.28594914e-01, 1.08484216e-01, 1.35717347e-01,
          1.59824684e-01, 1.49279222e-01, 8.39290246e-02, 5.31676933e-02,
          1.07585914e-01, 7.08954707e-02, 1.29196748e-01, 2.69328594e-01,
          1.80838645e-01, 1.51163906e-01, 8.03640559e-02, 1.21965706e-01,
          7.36690760e-02, 8.50677118e-02, 1.09144643e-01, 1.64887562e-01,
          1.36126563e-01, 1.38310492e-01, 0., 4.65998165e-02,
          5.03753275e-02, 1.46055594e-01, 2.03806192e-01, 2.01572075e-01,
          1.97203144e-01, 2.26882413e-01, 1.18864827e-01, 7.36022368e-02,
          1.06587030e-01, 1.77444980e-01, 1.53229609e-01, 1.34523615e-01 ]
      - [ 2.54778922e-01, 1.12810493e-01, 7.79284239e-02, 3.50631587e-02,
          1.38938487e-01, 7.21436888e-02, 7.65152201e-02, 1.18803084e-01,
          1.46890819e-01, 3.33010033e-02, 6.75110379e-03, 6.21737167e-02,
          8.22380036e-02, 4.36004102e-02, 1.55855089e-01, 2.09262013e-01,
          2.60614246e-01, 1.18149228e-01, 7.08277002e-02, 4.38997932e-02,
          1.33991856e-02, 5.11947051e-02, 8.66151080e-02, 1.28867105e-01,
          2.12524906e-01, 4.11424600e-03, 0., 0., 1.45229742e-01,
          9.30186659e-02, 1.97881326e-01, 1.22608930e-01, 1.50874272e-01,
          1.15170352e-01, 4.91422862e-02, 4.72174585e-02, 8.97469074e-02,
          5.81580848e-02, 1.37590855e-01, 2.30648845e-01, 2.07090586e-01,
          1.52897418e-01, 1.05474800e-01, 1.21016838e-01, 6.34566694e-02,
          0., 7.32311979e-02, 7.18069822e-02, 1.47371545e-01,
          4.70429808e-02, 4.82643731e-02, 5.01171052e-02, 6.72932863e-02,
          1.21416144e-01, 1.47853270e-01, 1.80757999e-01, 1.83954492e-01,
          1.96841985e-01, 1.99654415e-01, 6.60786778e-02, 9.98777747e-02,
          1.46304265e-01, 1.04782850e-01, 1.72682777e-01 ]
      - [ 2.26758912e-01, 1.54713616e-01, 7.76371509e-02, 9.25508887e-02,
          8.68633315e-02, 8.16060975e-02, 1.46671042e-01, 1.59354702e-01,
          2.01803327e-01, 7.22145513e-02, 7.28341565e-02, 3.60275246e-02,
          7.53897615e-03, 8.03317279e-02, 1.98408619e-01, 1.74508214e-01,
          2.02750266e-01, 1.13513999e-01, 2.69260462e-02, 8.96540377e-03,
          1.87718980e-02, 0., 9.46874917e-02, 1.31201014e-01,
          2.50241756e-01, 3.89607251e-02, 0., 4.52965498e-02,
          1.52854815e-01, 1.03459679e-01, 1.91087097e-01, 1.81334540e-01,
          1.44669458e-01, 6.25552535e-02, 1.02319248e-01, 6.52323142e-02,
          9.81890634e-02, 7.69593865e-02, 9.52787846e-02, 1.32138163e-01,
          1.67641088e-01, 1.07265428e-01, 8.88487101e-02, 7.07962066e-02,
          1.00841865e-01, 1.09862201e-01, 1.07063994e-01, 1.01090565e-01,
          1.60399988e-01, 1.28520966e-01, 6.78167939e-02, 6.85486868e-02,
          5.83966589e-03, 7.42984340e-02, 1.36191770e-01, 1.05326019e-01,
          1.95530698e-01, 1.02296561e-01, 1.79358974e-01, 8.10910240e-02,
          1.70598820e-01, 1.56922191e-01, 1.39150426e-01, 2.09052503e-01 ]
      - [ 2.06870779e-01, 1.24068156e-01, 7.15026706e-02, 1.78867117e-01,
          1.44036531e-01, 5.49166836e-02, 7.18591586e-02, 6.15511183e-03,
          1.11808874e-01, 4.70219180e-02, 1.00660063e-01, 1.30501837e-01,
          1.26375243e-01, 5.97577281e-02, 1.64652571e-01, 1.16508864e-01,
          2.04794064e-01, 1.11625224e-01, 1.19015031e-01, 5.36803342e-02,
          7.08485544e-02, 4.66713831e-02, 1.01504643e-02, 7.82154575e-02,
          6.79150969e-02, 5.31561971e-02, 8.08763430e-02, 7.92626366e-02,
          6.73244670e-02, 1.67664185e-01, 1.49522901e-01, 1.20605990e-01,
          1.24874756e-01, 9.90102217e-02, 9.24819931e-02, 1.40127629e-01,
          1.69183731e-01, 8.23427513e-02, 8.55365917e-02, 1.05887108e-01,
          2.77495235e-01, 4.24869061e-02, 1.08152017e-01, 1.47027984e-01,
          1.99662402e-01, 1.29222110e-01, 7.23139495e-02, 9.67396274e-02,
          2.14402512e-01, 1.10148504e-01, 4.20779027e-02, 4.54312302e-02,
          7.72191361e-02, 0., 9.72438231e-02, 1.16099685e-01,
          3.12013030e-01, 1.64999709e-01, 2.28832766e-01, 7.48567954e-02,
          7.49919936e-02, 4.34938073e-02, 1.08226851e-01, 1.24765880e-01 ]
      - [ 2.30111033e-01, 1.36150956e-01, 1.01193547e-01, 1.23147391e-01,
          1.15282655e-01, 8.83256644e-03, 1.12156518e-01, 9.97864008e-02,
          1.25081003e-01, 1.36554003e-01, 5.81916561e-03, 9.62813720e-02,
          7.60058612e-02, 1.15133964e-01, 1.31759852e-01, 1.14477664e-01,
          2.00737059e-01, 1.44875288e-01, 5.58183417e-02, 6.34246171e-02,
          6.88433275e-02, 3.40420045e-02, 9.06990469e-02, 6.21364685e-03,
          7.87009299e-02, 1.08820908e-01, 4.60271873e-02, 4.89331549e-03,
          1.35495588e-02, 1.55989572e-01, 1.67735279e-01, 1.21263660e-01,
          2.14652210e-01, 1.47166938e-01, 1.01239957e-01, 8.82463902e-02,
          9.24781933e-02, 0., 9.96409580e-02, 2.30405912e-01,
          2.97950476e-01, 8.54872838e-02, 9.33609083e-02, 3.88252921e-02,
          7.92870820e-02, 9.59224254e-02, 1.35150179e-01, 1.21496819e-01,
          1.65149406e-01, 7.57977068e-02, 1.17673784e-01, 8.16080868e-02,
          2.53950562e-02, 5.90746365e-02, 9.23546553e-02, 1.28072813e-01,
          3.09715599e-01, 1.48056388e-01, 1.92898542e-01, 5.39007671e-02,
          1.03571348e-01, 9.44984853e-02, 1.29681811e-01, 1.21656843e-01 ]
      - [ 1.68044239e-01, 1.32802889e-01, 1.52601376e-01, 1.21507570e-01,
          1.03983343e-01, 7.96879157e-02, 8.11816901e-02, 9.60896462e-02,
          1.08900093e-01, 1.25222325e-01, 6.51825666e-02, 0.,
          9.37769096e-03, 6.61079586e-02, 1.29570559e-01, 1.89075604e-01,
          1.89871132e-01, 1.24718376e-01, 1.24060795e-01, 0.,
          1.73117723e-02, 0., 8.51749349e-03, 4.32035662e-02,
